{"learner":{"attributes":{"scikit_learn":"{\"_estimator_type\": \"classifier\"}"},"feature_names":["location_id","temperature_celsius","humidity_percent","air_quality_index","noise_level_db","lighting_lux","crowd_density","stress_level","sleep_hours","mood_score","hour","weekday","is_weekend","hour_sin","hour_cos","humidity_percent_lag_2","humidity_percent_lag_12","air_quality_index_lag_21","noise_level_db_lag_6","noise_level_db_lag_14","noise_level_db_lag_34","crowd_density_lag_13","stress_level_lag_3","stress_level_lag_30","stress_level_lag_34","sleep_hours_lag_12","sleep_hours_lag_21","mood_score_lag_7","mood_score_lag_9","mood_score_lag_14","mood_score_lag_16","mental_health_status_lag_3","mental_health_status_lag_14","mental_health_status_lag_24","mental_health_status_lag_34","air_quality_index_lag_44","noise_level_db_lag_12","lighting_lux_lag_8","mood_score_lag_8"],"feature_types":["int","float","float","int","float","float","int","int","float","float","int","int","int","float","float","float","float","float","float","float","float","float","float","float","float","float","float","float","float","float","float","float","float","float","float","float","float","float","float"],"gradient_booster":{"model":{"gbtree_model_param":{"num_parallel_tree":"1","num_trees":"100"},"iteration_indptr":[0,1,2,3,4,5,6,7,8,9,10,11,12,13,14,15,16,17,18,19,20,21,22,23,24,25,26,27,28,29,30,31,32,33,34,35,36,37,38,39,40,41,42,43,44,45,46,47,48,49,50,51,52,53,54,55,56,57,58,59,60,61,62,63,64,65,66,67,68,69,70,71,72,73,74,75,76,77,78,79,80,81,82,83,84,85,86,87,88,89,90,91,92,93,94,95,96,97,98,99,100],"tree_info":[0,0,0,0,0,0,0,0,0,0,0,0,0,0,0,0,0,0,0,0,0,0,0,0,0,0,0,0,0,0,0,0,0,0,0,0,0,0,0,0,0,0,0,0,0,0,0,0,0,0,0,0,0,0,0,0,0,0,0,0,0,0,0,0,0,0,0,0,0,0,0,0,0,0,0,0,0,0,0,0,0,0,0,0,0,0,0,0,0,0,0,0,0,0,0,0,0,0,0,0],"trees":[{"base_weights":[5.5476084E-2,-1.9478334E-1,1.9626856E0,2.0003723E-1,-2.0769859E-2],"categories":[],"categories_nodes":[],"categories_segments":[],"categories_sizes":[],"default_left":[0,0,0,0,0],"id":0,"left_children":[1,-1,3,-1,-1],"loss_changes":[5.873404E2,0E0,6.8556824E0,0E0,0E0],"parents":[2147483647,0,0,2,2],"right_children":[2,-1,4,-1,-1],"split_conditions":[4E1,-1.9478334E-1,7.1E1,2.0003723E-1,-2.0769859E-2],"split_indices":[7,0,7,0,0],"split_type":[0,0,0,0,0],"sum_hessian":[1.51724E2,7.398732E1,7.773668E1,7.648689E1,1.2497859E0],"tree_param":{"num_deleted":"0","num_feature":"39","num_nodes":"5","size_leaf_vector":"1"}},{"base_weights":[2.6231239E-2,-7.6701814E-1,7.4467087E-1,-1.1662464E0,-3.845213E-1,-1.9822079E-3,9.616385E-1,-1.2878618E0,2.7611247E-1,-5.407264E-1,9.7865546E-1,6.824512E-1,-8.6367804E-1,4.0324366E-1,1.2338332E0,1.7986026E-2,-1.3789365E0,-5.9180655E-2,1.0190226E-1,-6.484552E-1,1.1009138E-1,1.2238538E-1,2.1443361E-2,9.7735125E-1,-7.1215466E-2,3.766903E-2,-1.1730231E0,-1.804514E-1,1.2317625E0,1.3192168E0,-1.4997857E-2,-1.4460407E-1,-2.8698066E-2,2.1178278E-3,-8.980511E-2,-3.488711E-2,1.269041E-1,-1.4983946E-1,2.1443361E-2,-4.0454913E-2,8.3886735E-2,3.180507E-2,1.4463936E-1,1.5310265E-1,7.744986E-2],"categories":[],"categories_nodes":[],"categories_segments":[],"categories_sizes":[],"default_left":[0,0,0,0,0,0,0,0,0,0,0,0,0,0,0,0,0,0,0,0,0,0,0,0,0,0,0,0,0,0,0,0,0,0,0,0,0,0,0,0,0,0,0,0,0],"id":1,"left_children":[1,3,5,7,9,11,13,15,17,19,21,23,25,27,29,-1,31,-1,-1,33,-1,-1,-1,35,-1,-1,37,39,41,43,-1,-1,-1,-1,-1,-1,-1,-1,-1,-1,-1,-1,-1,-1,-1],"loss_changes":[8.4804535E1,1.0353355E1,1.2648605E1,6.340622E0,8.539256E0,1.1544602E1,8.696629E0,4.4778175E0,2.8447356E0,6.7965612E0,5.289464E-1,5.183404E0,3.766335E0,1.05274315E1,4.9455338E0,0E0,1.7766342E0,0E0,0E0,5.518759E0,0E0,0E0,0E0,4.0899324E0,0E0,0E0,3.5616293E0,3.394322E0,1.2922764E0,3.1926117E0,0E0,0E0,0E0,0E0,0E0,0E0,0E0,0E0,0E0,0E0,0E0,0E0,0E0,0E0,0E0],"parents":[2147483647,0,0,1,1,2,2,3,3,4,4,5,5,6,6,7,7,8,8,9,9,10,10,11,11,12,12,13,13,14,14,16,16,19,19,23,23,26,26,27,27,28,28,29,29],"right_children":[2,4,6,8,10,12,14,16,18,20,22,24,26,28,30,-1,32,-1,-1,34,-1,-1,-1,36,-1,-1,38,40,42,44,-1,-1,-1,-1,-1,-1,-1,-1,-1,-1,-1,-1,-1,-1,-1],"split_conditions":[8.3E1,4.9E1,1.8E1,3.752741E2,6.595059E1,1.8E0,1.07E2,3E-1,7.9E1,5.8E1,6.7446526E1,2.7518187E1,-7.0710677E-1,5.8267643E1,1.36E2,1.7986026E-2,3E0,-5.9180655E-2,1.0190226E-1,1.4E0,1.1009138E-1,1.2238538E-1,2.1443361E-2,4.851737E1,-7.1215466E-2,3.766903E-2,5.1E1,7.54E0,2.3129177E1,4.7E1,-1.4997857E-2,-1.4460407E-1,-2.8698066E-2,2.1178278E-3,-8.980511E-2,-3.488711E-2,1.269041E-1,-1.4983946E-1,2.1443361E-2,-4.0454913E-2,8.3886735E-2,3.180507E-2,1.4463936E-1,1.5310265E-1,7.744986E-2],"split_indices":[3,3,6,5,4,9,3,9,35,6,4,1,13,4,17,0,27,0,0,9,0,0,0,2,0,0,24,25,1,23,0,0,0,0,0,0,0,0,0,0,0,0,0,0,0],"split_type":[0,0,0,0,0,0,0,0,0,0,0,0,0,0,0,0,0,0,0,0,0,0,0,0,0,0,0,0,0,0,0,0,0,0,0,0,0,0,0,0,0,0,0,0,0],"sum_hessian":[1.468033E2,6.973705E1,7.706625E1,3.3119637E1,3.6617413E1,1.7575243E1,5.949101E1,3.0643023E1,2.4766145E0,3.3394142E1,3.2232697E0,9.911047E0,7.6641974E0,2.0309156E1,3.918185E1,1.7334007E0,2.8909622E1,1.2360128E0,1.2406017E0,3.190542E1,1.488722E0,1.9849626E0,1.2383072E0,8.428061E0,1.482986E0,1.4864275E0,6.1777697E0,1.2373895E1,7.9352617E0,3.6948727E1,2.2331252E0,2.6930395E1,1.9792266E0,8.911682E0,2.299374E1,1.4841331E0,6.9439273E0,4.9394627E0,1.2383072E0,1.06382E1,1.7356951E0,1.981521E0,5.9537406E0,2.5300243E1,1.1648483E1],"tree_param":{"num_deleted":"0","num_feature":"39","num_nodes":"45","size_leaf_vector":"1"}},{"base_weights":[-8.5151084E-2,-8.7797064E-1,6.395583E-1,1.5960744E-1,-1.1419563E0,8.7432045E-1,-5.617854E-1,7.78533E-1,-4.6367005E-1,-6.176449E-1,-1.3319671E0,9.755902E-1,-1.8253776E-1,1.9966985E-1,-1.0553E0,-5.4292828E-2,1.0899891E0,-8.325769E-1,7.452825E-2,-1.3992487E-1,-1.4581564E-1,-1.7864512E-1,-1.415193E0,1.0755749E0,-4.0302385E-2,3.647046E-1,-1.11325406E-1,9.3816507E-1,-9.096292E-2,-1.3498674E-1,-2.451408E-1,2.0604277E-2,1.4609759E-1,-1.1142272E-1,2.5364358E-2,1.1001121E-1,-4.1794058E-2,5.0965406E-2,-9.423097E-2,-1.5537325E-1,-5.5226516E-2,1.2644574E-1,5.5410404E-2,-6.921866E-2,7.18428E-2,8.535485E-2,-6.071503E-2,1.17727295E-1,1.9877745E-2,-9.770771E-2,5.943919E-2],"categories":[],"categories_nodes":[],"categories_segments":[],"categories_sizes":[],"default_left":[0,0,0,0,0,0,0,0,0,0,0,0,0,0,0,0,0,0,0,0,0,0,0,0,0,0,0,0,0,0,0,0,0,0,0,0,0,0,0,0,0,0,0,0,0,0,0,0,0,0,0],"id":2,"left_children":[1,3,5,7,9,11,13,15,17,19,21,23,25,27,29,-1,31,33,-1,35,-1,37,39,41,43,45,-1,47,-1,-1,49,-1,-1,-1,-1,-1,-1,-1,-1,-1,-1,-1,-1,-1,-1,-1,-1,-1,-1,-1,-1],"loss_changes":[8.686322E1,1.9945282E1,2.2786007E1,6.344739E0,4.9198E0,7.2975464E0,5.2956777E0,3.9486876E0,4.346901E0,6.7011805E0,3.7252197E0,6.225193E0,3.7976465E0,5.901453E0,1.6664009E0,0E0,1.9725313E0,2.3856592E0,0E0,4.6213346E0,0E0,2.5479994E0,3.745781E0,4.760376E0,3.671219E0,2.8683121E0,0E0,5.0703454E-1,0E0,0E0,2.7029014E0,0E0,0E0,0E0,0E0,0E0,0E0,0E0,0E0,0E0,0E0,0E0,0E0,0E0,0E0,0E0,0E0,0E0,0E0,0E0,0E0],"parents":[2147483647,0,0,1,1,2,2,3,3,4,4,5,5,6,6,7,7,8,8,9,9,10,10,11,11,12,12,13,13,14,14,16,16,17,17,19,19,21,21,22,22,23,23,24,24,25,25,27,27,30,30],"right_children":[2,4,6,8,10,12,14,16,18,20,22,24,26,28,30,-1,32,34,-1,36,-1,38,40,42,44,46,-1,48,-1,-1,50,-1,-1,-1,-1,-1,-1,-1,-1,-1,-1,-1,-1,-1,-1,-1,-1,-1,-1,-1,-1],"split_conditions":[8.2E1,5.79E0,7.26E0,5.206262E1,1.4E0,1.38E2,1.8E0,4E-1,2.4E0,4.5E1,3.9842896E1,5.8E1,2.5E0,5.9242355E1,4.6E1,-5.4292828E-2,1.8E1,6.7082146E1,7.452825E-2,2.075683E1,-1.4581564E-1,6.0580227E1,4.8E1,4.6E1,1.09E2,3.7E1,-1.11325406E-1,6.4720024E1,-9.096292E-2,-1.3498674E-1,2E1,2.0604277E-2,1.4609759E-1,-1.1142272E-1,2.5364358E-2,1.1001121E-1,-4.1794058E-2,5.0965406E-2,-9.423097E-2,-1.5537325E-1,-5.5226516E-2,1.2644574E-1,5.5410404E-2,-6.921866E-2,7.18428E-2,8.535485E-2,-6.071503E-2,1.17727295E-1,1.9877745E-2,-9.770771E-2,5.943919E-2],"split_indices":[3,8,8,20,9,17,9,27,30,21,18,24,27,16,22,0,21,2,0,1,0,16,6,23,3,24,0,15,0,0,6,0,0,0,0,0,0,0,0,0,0,0,0,0,0,0,0,0,0,0,0],"split_type":[0,0,0,0,0,0,0,0,0,0,0,0,0,0,0,0,0,0,0,0,0,0,0,0,0,0,0,0,0,0,0,0,0,0,0,0,0,0,0,0,0,0,0,0,0,0,0,0,0,0,0],"sum_hessian":[1.4920387E2,7.115263E1,7.805123E1,1.4511509E1,5.664113E1,6.5519806E1,1.2531426E1,7.1561904E0,7.3553185E0,1.6197287E1,4.044384E1,5.9860756E1,5.6590524E0,5.1621056E0,7.3693204E0,1.2231895E0,5.933001E0,5.874165E0,1.4811534E0,1.1071228E1,5.1260595E0,2.9338486E0,3.750999E1,5.444364E1,5.417115E0,3.946649E0,1.7124035E0,3.1916175E0,1.9704881E0,4.9157996E0,2.4535205E0,2.2137387E0,3.7192624E0,4.6441755E0,1.2299896E0,1.4860346E0,9.585194E0,1.7180089E0,1.2158396E0,3.1631197E1,5.8787947E0,3.892117E1,1.5522471E1,2.960889E0,2.4562259E0,2.7068393E0,1.2398098E0,1.9641964E0,1.2274212E0,1.2232288E0,1.2302917E0],"tree_param":{"num_deleted":"0","num_feature":"39","num_nodes":"51","size_leaf_vector":"1"}},{"base_weights":[1.6607645E-3,-1.6669956E-1,1.6770751E0,1.7140435E-1,4.631656E-3],"categories":[],"categories_nodes":[],"categories_segments":[],"categories_sizes":[],"default_left":[0,0,0,0,0],"id":3,"left_children":[1,-1,3,-1,-1],"loss_changes":[4.259033E2,0E0,4.503418E0,0E0,0E0],"parents":[2147483647,0,0,2,2],"right_children":[2,-1,4,-1,-1],"split_conditions":[4E1,-1.6669956E-1,6.8E1,1.7140435E-1,4.631656E-3],"split_indices":[7,0,7,0,0],"split_type":[0,0,0,0,0],"sum_hessian":[1.5034279E2,7.532583E1,7.501697E1,7.330413E1,1.712831E0],"tree_param":{"num_deleted":"0","num_feature":"39","num_nodes":"5","size_leaf_vector":"1"}},{"base_weights":[-2.2535795E-2,-7.422906E-1,5.9589756E-1,-2.120977E-1,-9.431555E-1,1.9130306E-1,8.9113784E-1,-6.808303E-1,4.0860757E-1,-1.0301467E0,6.4067535E-2,-1.6597012E-1,6.926376E-1,3.094621E-1,1.1299613E0,-1.075629E0,1.6298717E-1,9.2394954E-1,-5.426428E-1,2.9181272E-2,-1.0716987E0,-4.5796204E-1,4.8721933E-1,-6.0667623E-2,9.412174E-1,-3.454045E-1,8.280844E-1,2.7260685E-1,1.2705722E0,-1.3222365E-1,-1.8669272E-2,-4.806849E-2,7.88877E-2,1.1898901E-1,5.34837E-4,-9.8661475E-2,2.4050599E-2,-1.1146557E-1,2.7356822E-2,-9.0437494E-2,1.414263E-2,8.759289E-2,-4.4988368E-2,1.2467518E-1,3.4204204E-4,3.5099126E-2,-1.1369909E-1,5.9609963E-3,1.0850865E-1,9.242366E-2,-6.561227E-2,3.4718793E-2,1.3173899E-1],"categories":[],"categories_nodes":[],"categories_segments":[],"categories_sizes":[],"default_left":[0,0,0,0,0,0,0,0,0,0,0,0,0,0,0,0,0,0,0,0,0,0,0,0,0,0,0,0,0,0,0,0,0,0,0,0,0,0,0,0,0,0,0,0,0,0,0,0,0,0,0,0,0],"id":4,"left_children":[1,3,5,7,9,11,13,15,17,19,-1,21,23,25,27,29,31,33,35,-1,37,39,41,-1,43,45,47,49,51,-1,-1,-1,-1,-1,-1,-1,-1,-1,-1,-1,-1,-1,-1,-1,-1,-1,-1,-1,-1,-1,-1,-1,-1],"loss_changes":[6.4240135E1,6.901493E0,9.104336E0,5.9841576E0,7.2831764E0,6.2100534E0,5.8481407E0,4.0226846E0,4.9442167E0,2.836853E0,0E0,4.166603E0,5.206833E0,5.1642084E0,3.421135E0,1.5067539E0,2.2120569E0,1.5200682E0,1.5636116E0,0E0,2.8918648E0,4.089129E0,2.8972425E0,0E0,3.5601778E0,4.2873716E0,1.576498E0,4.0417333E0,6.9148636E-1,0E0,0E0,0E0,0E0,0E0,0E0,0E0,0E0,0E0,0E0,0E0,0E0,0E0,0E0,0E0,0E0,0E0,0E0,0E0,0E0,0E0,0E0,0E0,0E0],"parents":[2147483647,0,0,1,1,2,2,3,3,4,4,5,5,6,6,7,7,8,8,9,9,11,11,12,12,13,13,14,14,15,15,16,16,17,17,18,18,20,20,21,21,22,22,24,24,25,25,26,26,27,27,28,28],"right_children":[2,4,6,8,10,12,14,16,18,20,-1,22,24,26,28,30,32,34,36,-1,38,40,42,-1,44,46,48,50,52,-1,-1,-1,-1,-1,-1,-1,-1,-1,-1,-1,-1,-1,-1,-1,-1,-1,-1,-1,-1,-1,-1,-1,-1],"split_conditions":[8.2E1,1.4E0,1.1E2,6.75E0,5.8E1,5.7169064E1,2.2E1,5E-1,7.73E0,2.037271E2,6.4067535E-2,7.14E0,2.3E1,5.332576E1,7E-1,6.21322E1,2.4E1,2.69888E1,8.57E0,2.9181272E-2,6.6E1,3E1,5.5E1,-6.0667623E-2,1.15E2,1.8E0,1.22E2,2.9909885E2,3.691414E1,-1.3222365E-1,-1.8669272E-2,-4.806849E-2,7.88877E-2,1.1898901E-1,5.34837E-4,-9.8661475E-2,2.4050599E-2,-1.1146557E-1,2.7356822E-2,-9.0437494E-2,1.414263E-2,8.759289E-2,-4.4988368E-2,1.2467518E-1,3.4204204E-4,3.5099126E-2,-1.1369909E-1,5.9609963E-3,1.0850865E-1,9.242366E-2,-6.561227E-2,3.4718793E-2,1.3173899E-1],"split_indices":[3,9,3,25,6,4,6,13,25,5,0,25,22,4,29,36,6,1,25,0,22,21,23,0,35,9,3,5,4,0,0,0,0,0,0,0,0,0,0,0,0,0,0,0,0,0,0,0,0,0,0,0,0],"split_type":[0,0,0,0,0,0,0,0,0,0,0,0,0,0,0,0,0,0,0,0,0,0,0,0,0,0,0,0,0,0,0,0,0,0,0,0,0,0,0,0,0,0,0,0,0,0,0,0,0,0,0,0,0],"sum_hessian":[1.4232709E2,6.5682816E1,7.664428E1,1.8611847E1,4.7070965E1,3.3029255E1,4.361502E1,1.0548878E1,8.062969E0,4.4951603E1,2.119362E0,1.9676123E1,1.3353131E1,1.3363298E1,3.0251724E1,6.9993563E0,3.5495214E0,5.248359E0,2.8146102E0,1.1863226E0,4.376528E1,1.3804191E1,5.871933E0,1.9130654E0,1.1440066E1,6.0535064E0,7.3097925E0,4.6764555E0,2.5575268E1,5.097718E0,1.9016387E0,1.8642764E0,1.685245E0,3.8410296E0,1.4073296E0,1.6304773E0,1.184133E0,4.2577133E1,1.1881495E0,7.620075E0,6.184115E0,4.196506E0,1.675427E0,8.380313E0,3.059754E0,3.516486E0,2.5370202E0,2.1407063E0,5.169086E0,2.751055E0,1.9254004E0,1.6402569E0,2.393501E1],"tree_param":{"num_deleted":"0","num_feature":"39","num_nodes":"53","size_leaf_vector":"1"}},{"base_weights":[1.0947674E-2,-1.5324686E-1,1.5219378E0,1.5706258E-1,-5.028985E-2],"categories":[],"categories_nodes":[],"categories_segments":[],"categories_sizes":[],"default_left":[0,0,0,0,0],"id":5,"left_children":[1,-1,3,-1,-1],"loss_changes":[3.362492E2,0E0,7.9721375E0,0E0,0E0],"parents":[2147483647,0,0,2,2],"right_children":[2,-1,4,-1,-1],"split_conditions":[4E1,-1.5324686E-1,7.1E1,1.5706258E-1,-5.028985E-2],"split_indices":[7,0,7,0,0],"split_type":[0,0,0,0,0],"sum_hessian":[1.4218372E2,7.03301E1,7.1853615E1,7.038549E1,1.4681214E0],"tree_param":{"num_deleted":"0","num_feature":"39","num_nodes":"5","size_leaf_vector":"1"}},{"base_weights":[5.4889335E-3,-1.453771E-1,1.4548025E0,1.4785105E-1,8.177993E-3],"categories":[],"categories_nodes":[],"categories_segments":[],"categories_sizes":[],"default_left":[0,0,0,0,0],"id":6,"left_children":[1,-1,3,-1,-1],"loss_changes":[2.8414246E2,0E0,2.0731812E0,0E0,0E0],"parents":[2147483647,0,0,2,2],"right_children":[2,-1,4,-1,-1],"split_conditions":[4E1,-1.453771E-1,6.9E1,1.4785105E-1,8.177993E-3],"split_indices":[7,0,7,0,0],"split_type":[0,0,0,0,0],"sum_hessian":[1.3235104E2,6.594769E1,6.640336E1,6.520071E1,1.2026467E0],"tree_param":{"num_deleted":"0","num_feature":"39","num_nodes":"5","size_leaf_vector":"1"}},{"base_weights":[-1.7557226E-2,-1.3884385E-1,1.3634348E0,1.4165723E-1,-7.347436E-2],"categories":[],"categories_nodes":[],"categories_segments":[],"categories_sizes":[],"default_left":[0,0,0,0,0],"id":7,"left_children":[1,-1,3,-1,-1],"loss_changes":[2.4091083E2,0E0,8.109253E0,0E0,0E0],"parents":[2147483647,0,0,2,2],"right_children":[2,-1,4,-1,-1],"split_conditions":[4E1,-1.3884385E-1,6.9E1,1.4165723E-1,-7.347436E-2],"split_indices":[7,0,7,0,0],"split_type":[0,0,0,0,0],"sum_hessian":[1.2525227E2,6.2853527E1,6.2398743E1,6.1174328E1,1.2244143E0],"tree_param":{"num_deleted":"0","num_feature":"39","num_nodes":"5","size_leaf_vector":"1"}},{"base_weights":[1.2326124E-3,-1.3392614E-1,1.3172594E0,1.35698E-1,-3.521076E-2],"categories":[],"categories_nodes":[],"categories_segments":[],"categories_sizes":[],"default_left":[0,0,0,0,0],"id":8,"left_children":[1,-1,3,-1,-1],"loss_changes":[2.1268997E2,0E0,4.511795E0,0E0,0E0],"parents":[2147483647,0,0,2,2],"right_children":[2,-1,4,-1,-1],"split_conditions":[4E1,-1.3392614E-1,6.9E1,1.35698E-1,-3.521076E-2],"split_indices":[7,0,7,0,0],"split_type":[0,0,0,0,0],"sum_hessian":[1.1856393E2,5.8727215E1,5.983671E1,5.8628834E1,1.2078763E0],"tree_param":{"num_deleted":"0","num_feature":"39","num_nodes":"5","size_leaf_vector":"1"}},{"base_weights":[1.5526465E-2,-1.2898408E-1,1.2614372E0,1.3128737E-1,-4.1122865E-2],"categories":[],"categories_nodes":[],"categories_segments":[],"categories_sizes":[],"default_left":[0,0,0,0,0],"id":9,"left_children":[1,-1,3,-1,-1],"loss_changes":[1.828767E2,0E0,5.4892197E0,0E0,0E0],"parents":[2147483647,0,0,2,2],"right_children":[2,-1,4,-1,-1],"split_conditions":[4E1,-1.2898408E-1,7.1E1,1.3128737E-1,-4.1122865E-2],"split_indices":[7,0,7,0,0],"split_type":[0,0,0,0,0],"sum_hessian":[1.1044422E2,5.3917965E1,5.652626E1,5.5048553E1,1.4777066E0],"tree_param":{"num_deleted":"0","num_feature":"39","num_nodes":"5","size_leaf_vector":"1"}},{"base_weights":[1.7258683E-3,-1.2561826E-1,1.2305838E0,1.2705776E-1,-3.0985082E-2],"categories":[],"categories_nodes":[],"categories_segments":[],"categories_sizes":[],"default_left":[0,0,0,0,0],"id":10,"left_children":[1,-1,3,-1,-1],"loss_changes":[1.6918988E2,0E0,3.8045883E0,0E0,0E0],"parents":[2147483647,0,0,2,2],"right_children":[2,-1,4,-1,-1],"split_conditions":[4E1,-1.2561826E-1,6.9E1,1.2705776E-1,-3.0985082E-2],"split_indices":[7,0,7,0,0],"split_type":[0,0,0,0,0],"sum_hessian":[1.07451965E2,5.3087364E1,5.4364605E1,5.315962E1,1.2049838E0],"tree_param":{"num_deleted":"0","num_feature":"39","num_nodes":"5","size_leaf_vector":"1"}},{"base_weights":[7.872377E-3,3.8264444E-1,-3.7559256E-1,1.1618726E-2,5.381523E-1,3.4843925E-2,-6.9348204E-1,-5.7027745E-1,2.5903514E-1,6.605315E-1,5.503651E-3,-5.2111995E-1,2.1061663E-1,-8.462E-1,9.0851285E-2,9.328886E-3,-8.733212E-2,6.9865906E-1,-2.893407E-1,1.0622094E0,3.3008537E-1,-6.7934625E-2,2.5426203E-1,1.27085475E-2,-7.040537E-1,5.384369E-1,-1.4930949E-1,-2.2459177E-3,-9.0241325E-1,4.257293E-1,-6.308555E-2,1.7770429E-3,8.395937E-2,4.6382543E-2,-5.7676345E-2,3.060459E-2,1.1099805E-1,4.730028E-2,-3.0503605E-2,4.7557082E-2,-2.8681327E-2,-9.881223E-3,-8.701842E-2,7.3396794E-2,-3.623235E-2,4.5288157E-2,-3.8392525E-2,-1.00137316E-1,-3.539088E-2,-2.0134656E-2,8.285719E-2],"categories":[],"categories_nodes":[],"categories_segments":[],"categories_sizes":[],"default_left":[0,0,0,0,0,0,0,0,0,0,0,0,0,0,0,0,0,0,0,0,0,0,0,0,0,0,0,0,0,0,0,0,0,0,0,0,0,0,0,0,0,0,0,0,0,0,0,0,0,0,0],"id":11,"left_children":[1,3,5,7,9,11,13,15,17,19,21,23,25,27,29,-1,-1,31,33,35,37,-1,39,-1,41,43,45,-1,47,49,-1,-1,-1,-1,-1,-1,-1,-1,-1,-1,-1,-1,-1,-1,-1,-1,-1,-1,-1,-1,-1],"loss_changes":[1.3630167E1,2.7606325E0,6.1418695E0,2.3339531E0,2.1976566E0,2.202735E0,3.2476368E0,1.0552889E0,2.9366028E0,3.293189E0,1.4193814E0,7.336618E-1,2.0844517E0,1.0102015E0,1.5294943E0,0E0,0E0,6.1730623E-1,1.5131626E0,9.159279E-2,1.6431148E0,0E0,8.6630714E-1,0E0,3.5540223E-1,1.8697367E0,1.4283099E0,0E0,7.749958E-1,1.217885E0,0E0,0E0,0E0,0E0,0E0,0E0,0E0,0E0,0E0,0E0,0E0,0E0,0E0,0E0,0E0,0E0,0E0,0E0,0E0,0E0,0E0],"parents":[2147483647,0,0,1,1,2,2,3,3,4,4,5,5,6,6,7,7,8,8,9,9,10,10,11,11,12,12,13,13,14,14,17,17,18,18,19,19,20,20,22,22,24,24,25,25,26,26,28,28,29,29],"right_children":[2,4,6,8,10,12,14,16,18,20,22,24,26,28,30,-1,-1,32,34,36,38,-1,40,-1,42,44,46,-1,48,50,-1,-1,-1,-1,-1,-1,-1,-1,-1,-1,-1,-1,-1,-1,-1,-1,-1,-1,-1,-1,-1],"split_conditions":[6.44E0,7E0,1.8E0,3.1E1,2.7132483E1,2.6221475E2,4.8E1,2.4E1,2.9885907E2,5.1842175E1,4.8908653E1,5.535383E1,4.4E1,3.9842896E1,7.0710677E-1,9.328886E-3,-8.733212E-2,1.4E1,1.2E1,2E1,2.7E0,-6.7934625E-2,1.05E2,1.27085475E-2,3.5E1,2.7835356E1,4.679109E1,-2.2459177E-3,2.6952967E1,1.1E1,-6.308555E-2,1.7770429E-3,8.395937E-2,4.6382543E-2,-5.7676345E-2,3.060459E-2,1.1099805E-1,4.730028E-2,-3.0503605E-2,4.7557082E-2,-2.8681327E-2,-9.881223E-3,-8.701842E-2,7.3396794E-2,-3.623235E-2,4.5288157E-2,-3.8392525E-2,-1.00137316E-1,-3.539088E-2,-2.0134656E-2,8.285719E-2],"split_indices":[8,10,9,24,1,37,6,24,37,36,36,2,23,18,14,0,0,21,21,22,9,0,0,0,24,1,18,0,1,10,0,0,0,0,0,0,0,0,0,0,0,0,0,0,0,0,0,0,0,0,0],"split_type":[0,0,0,0,0,0,0,0,0,0,0,0,0,0,0,0,0,0,0,0,0,0,0,0,0,0,0,0,0,0,0,0,0,0,0,0,0,0,0,0,0,0,0,0,0,0,0,0,0,0,0],"sum_hessian":[9.284361E1,4.6955097E1,4.588852E1,1.4185253E1,3.2769844E1,2.0417398E1,2.5471119E1,3.8427048E0,1.0342548E1,2.64522E1,6.317643E0,4.4325705E0,1.5984828E1,2.1253885E1,4.217234E0,1.4217342E0,2.4209707E0,5.5883822E0,4.754166E0,1.0939766E1,1.5512434E1,1.2221175E0,5.0955257E0,1.0428035E0,3.3897672E0,8.105963E0,7.8788652E0,1.4471469E0,1.9806738E1,3.1607344E0,1.0564997E0,1.1514663E0,4.4369164E0,1.1436342E0,3.610532E0,1.0901656E0,9.849601E0,1.2871334E1,2.6411002E0,3.7022908E0,1.393235E0,1.0735241E0,2.316243E0,6.812351E0,1.2936116E0,1.9481682E0,5.930697E0,1.607998E1,3.7267568E0,1.4319333E0,1.7288013E0],"tree_param":{"num_deleted":"0","num_feature":"39","num_nodes":"51","size_leaf_vector":"1"}},{"base_weights":[-1.6442396E-3,-1.2140496E-1,1.1703429E0,1.2250763E-1,-3.6787823E-2],"categories":[],"categories_nodes":[],"categories_segments":[],"categories_sizes":[],"default_left":[0,0,0,0,0],"id":12,"left_children":[1,-1,3,-1,-1],"loss_changes":[1.3887733E2,0E0,4.6348343E0,0E0,0E0],"parents":[2147483647,0,0,2,2],"right_children":[2,-1,4,-1,-1],"split_conditions":[4E1,-1.2140496E-1,6.9E1,1.2250763E-1,-3.6787823E-2],"split_indices":[7,0,7,0,0],"split_type":[0,0,0,0,0],"sum_hessian":[9.573743E1,4.7039642E1,4.8697784E1,4.7221127E1,1.4766581E0],"tree_param":{"num_deleted":"0","num_feature":"39","num_nodes":"5","size_leaf_vector":"1"}},{"base_weights":[-4.20086E-3,-1.18392885E-1,1.1476028E0,1.1940994E-1,-2.9024515E-2],"categories":[],"categories_nodes":[],"categories_segments":[],"categories_sizes":[],"default_left":[0,0,0,0,0],"id":13,"left_children":[1,-1,3,-1,-1],"loss_changes":[1.1943116E2,0E0,3.3199615E0,0E0,0E0],"parents":[2147483647,0,0,2,2],"right_children":[2,-1,4,-1,-1],"split_conditions":[4E1,-1.18392885E-1,6.9E1,1.1940994E-1,-2.9024515E-2],"split_indices":[7,0,7,0,0],"split_type":[0,0,0,0,0],"sum_hessian":[8.589371E1,4.241871E1,4.3475E1,4.227737E1,1.1976268E0],"tree_param":{"num_deleted":"0","num_feature":"39","num_nodes":"5","size_leaf_vector":"1"}},{"base_weights":[1.8615268E-2,-1.1594621E-1,1.1237923E0,1.1679472E-1,-1.859088E-2],"categories":[],"categories_nodes":[],"categories_segments":[],"categories_sizes":[],"default_left":[0,0,0,0,0],"id":14,"left_children":[1,-1,3,-1,-1],"loss_changes":[1.0601704E2,0E0,2.6462746E0,0E0,0E0],"parents":[2147483647,0,0,2,2],"right_children":[2,-1,4,-1,-1],"split_conditions":[4E1,-1.1594621E-1,6.9E1,1.1679472E-1,-1.859088E-2],"split_indices":[7,0,7,0,0],"split_type":[0,0,0,0,0],"sum_hessian":[7.942653E1,3.8421513E1,4.1005016E1,3.9772373E1,1.2326436E0],"tree_param":{"num_deleted":"0","num_feature":"39","num_nodes":"5","size_leaf_vector":"1"}},{"base_weights":[7.605678E-3,-3.981449E-1,3.957536E-1,-1.0535785E-1,-6.135855E-1,5.3702277E-1,-2.5685722E-1,-4.0406808E-1,2.8532144E-1,-1.0769357E-1,-7.5504005E-1,1.5341115E-1,6.560108E-1,2.1434227E-1,-5.931496E-1,-5.6572177E-2,-7.869935E-2,4.9874243E-1,-2.8917352E-2,3.4426516E-1,-4.4727817E-1,-1.0076446E-1,-8.461795E-1,3.9220837E-1,-4.3718845E-2,7.060488E-1,-8.431957E-3,5.4844923E-2,-3.39241E-2,-9.443029E-3,-7.4619874E-2,-4.926865E-2,2.802802E-2,-1.2446514E-2,6.894331E-2,4.725226E-3,4.751849E-2,-6.238963E-2,1.8045666E-3,2.582303E-2,-4.171249E-2,-9.5973186E-2,-2.3636008E-2,-1.2972444E-2,5.5741787E-2,7.863169E-2,1.4140776E-2],"categories":[],"categories_nodes":[],"categories_segments":[],"categories_sizes":[],"default_left":[0,0,0,0,0,0,0,0,0,0,0,0,0,0,0,0,0,0,0,0,0,0,0,0,0,0,0,0,0,0,0,0,0,0,0,0,0,0,0,0,0,0,0,0,0,0,0],"id":15,"left_children":[1,3,5,7,9,11,13,15,17,19,21,23,25,27,29,31,-1,33,-1,35,37,39,41,43,-1,45,-1,-1,-1,-1,-1,-1,-1,-1,-1,-1,-1,-1,-1,-1,-1,-1,-1,-1,-1,-1,-1],"loss_changes":[1.1947328E1,2.2754588E0,3.7114897E0,2.0914338E0,1.4332633E0,1.3685598E0,1.3273097E0,1.2874827E0,1.1157031E0,1.0428054E0,8.911047E-1,1.4302554E0,9.5830727E-1,9.053212E-1,2.871431E-1,1.067318E0,0E0,8.1598616E-1,0E0,9.612921E-2,3.1876177E-1,4.640046E-1,7.589884E-1,6.658002E-1,0E0,9.2364216E-1,0E0,0E0,0E0,0E0,0E0,0E0,0E0,0E0,0E0,0E0,0E0,0E0,0E0,0E0,0E0,0E0,0E0,0E0,0E0,0E0,0E0],"parents":[2147483647,0,0,1,1,2,2,3,3,4,4,5,5,6,6,7,7,8,8,9,9,10,10,11,11,12,12,13,13,14,14,15,15,17,17,19,19,20,20,21,21,22,22,23,23,25,25],"right_children":[2,4,6,8,10,12,14,16,18,20,22,24,26,28,30,32,-1,34,-1,36,38,40,42,44,-1,46,-1,-1,-1,-1,-1,-1,-1,-1,-1,-1,-1,-1,-1,-1,-1,-1,-1,-1,-1,-1,-1],"split_conditions":[8.5E1,1.8E0,7.26E0,6.76E0,5.97E0,1.9E1,1.8E0,5.228795E1,7.03E0,5.3173378E1,4.0918964E1,6.61E0,7.101948E1,5.5831898E1,2.674069E2,4.5307224E1,-7.869935E-2,2.1E1,-2.8917352E-2,1.04E2,6.420973E1,5.7529743E1,4.8E1,8E-1,-4.3718845E-2,1.31E2,-8.431957E-3,5.4844923E-2,-3.39241E-2,-9.443029E-3,-7.4619874E-2,-4.926865E-2,2.802802E-2,-1.2446514E-2,6.894331E-2,4.725226E-3,4.751849E-2,-6.238963E-2,1.8045666E-3,2.582303E-2,-4.171249E-2,-9.5973186E-2,-2.3636008E-2,-1.2972444E-2,5.5741787E-2,7.863169E-2,1.4140776E-2],"split_indices":[3,9,8,25,8,6,9,19,8,20,18,8,20,19,37,19,0,6,0,0,16,15,6,28,0,35,0,0,0,0,0,0,0,0,0,0,0,0,0,0,0,0,0,0,0,0,0],"split_type":[0,0,0,0,0,0,0,0,0,0,0,0,0,0,0,0,0,0,0,0,0,0,0,0,0,0,0,0,0,0,0,0,0,0,0,0,0,0,0,0,0,0,0,0,0,0,0],"sum_hessian":[7.385978E1,3.609847E1,3.7761307E1,1.5933557E1,2.0164913E1,3.1187366E1,6.573941E0,9.010178E0,6.9233794E0,4.7912E0,1.53737135E1,7.925441E0,2.3261925E1,2.888842E0,3.6850991E0,5.325315E0,3.6848624E0,5.144202E0,1.7791771E0,2.0495875E0,2.741613E0,2.137139E0,1.3236574E1,5.8827734E0,2.0426676E0,2.1832594E1,1.4293311E0,1.8073294E0,1.0815127E0,1.2450442E0,2.440055E0,2.1191223E0,3.2061927E0,1.2866187E0,3.8575838E0,1.0433967E0,1.0061908E0,1.7402903E0,1.0013226E0,1.0871855E0,1.0499537E0,1.0675019E1,2.5615551E0,1.4660356E0,4.4167376E0,1.8771486E1,3.0611093E0],"tree_param":{"num_deleted":"0","num_feature":"39","num_nodes":"47","size_leaf_vector":"1"}},{"base_weights":[-5.0003428E-2,-1.1339283E-1,1.0976449E0,1.13402285E-1,-5.223783E-4],"categories":[],"categories_nodes":[],"categories_segments":[],"categories_sizes":[],"default_left":[0,0,0,0,0],"id":16,"left_children":[1,-1,3,-1,-1],"loss_changes":[8.911422E1,0E0,1.4028168E0,0E0,0E0],"parents":[2147483647,0,0,2,2],"right_children":[2,-1,4,-1,-1],"split_conditions":[4E1,-1.1339283E-1,6.8E1,1.13402285E-1,-5.223783E-4],"split_indices":[7,0,7,0,0],"split_type":[0,0,0,0,0],"sum_hessian":[6.963671E1,3.5818756E1,3.381795E1,3.2710747E1,1.1072041E0],"tree_param":{"num_deleted":"0","num_feature":"39","num_nodes":"5","size_leaf_vector":"1"}},{"base_weights":[-4.9588825E-3,-2.6201987E-1,5.4923576E-1,-6.465377E-1,-8.317557E-2,8.132997E-1,2.0538771E-1,1.2011944E-2,-7.3202914E-1,5.8668382E-2,-3.7304127E-1,1.0089499E-1,1.6788355E-1,-1.627453E-1,4.5005623E-1,-8.386524E-3,-8.2231396E-1,-5.2189535E-1,1.5410632E-1,1.4338255E-1,-6.130254E-1,-5.589784E-2,6.1103124E-2,2.1517025E-1,-4.97409E-2,-1.29815405E-2,5.8402777E-1,-9.4642736E-2,2.1895692E-3,-1.7550912E-2,-6.403569E-2,-2.5853955E-3,3.612938E-2,5.443126E-2,-1.9608093E-2,-9.005154E-3,-7.753184E-2,-2.4371129E-2,5.710971E-2,-6.8001873E-3,7.6127075E-2],"categories":[],"categories_nodes":[],"categories_segments":[],"categories_sizes":[],"default_left":[0,0,0,0,0,0,0,0,0,0,0,0,0,0,0,0,0,0,0,0,0,0,0,0,0,0,0,0,0,0,0,0,0,0,0,0,0,0,0,0,0],"id":17,"left_children":[1,3,5,7,9,11,13,-1,15,17,19,-1,21,23,25,-1,27,29,31,33,35,-1,-1,37,-1,-1,39,-1,-1,-1,-1,-1,-1,-1,-1,-1,-1,-1,-1,-1,-1],"loss_changes":[9.712272E0,3.1480427E0,1.7946663E0,1.0470142E0,1.3756688E0,1.3310881E0,1.0390447E0,0E0,7.0968914E-1,1.3532528E0,1.445494E0,0E0,1.6183022E0,7.413732E-1,5.9686625E-1,0E0,1.2325311E0,3.0044675E-2,7.7372384E-1,6.9004124E-1,5.81033E-1,0E0,0E0,6.379253E-1,0E0,0E0,7.024367E-1,0E0,0E0,0E0,0E0,0E0,0E0,0E0,0E0,0E0,0E0,0E0,0E0,0E0,0E0],"parents":[2147483647,0,0,1,1,2,2,3,3,4,4,5,5,6,6,8,8,9,9,10,10,12,12,13,13,14,14,16,16,17,17,18,18,19,19,20,20,23,23,26,26],"right_children":[2,4,6,8,10,12,14,-1,16,18,20,-1,22,24,26,-1,28,30,32,34,36,-1,-1,38,-1,-1,40,-1,-1,-1,-1,-1,-1,-1,-1,-1,-1,-1,-1,-1,-1],"split_conditions":[1.1E2,4.8E1,6.12E0,5E-1,2.3E0,7.0710677E-1,1.6E0,1.2011944E-2,5.79E0,2.4E1,5.91E0,1.0089499E-1,4.8288563E1,5.6458927E1,9E-1,-8.386524E-3,1.35E2,3.2E1,5.664608E1,4.8886772E1,1E0,-5.589784E-2,6.1103124E-2,2.2E1,-4.97409E-2,-1.29815405E-2,4.516206E1,-9.4642736E-2,2.1895692E-3,-1.7550912E-2,-6.403569E-2,-2.5853955E-3,3.612938E-2,5.443126E-2,-1.9608093E-2,-9.005154E-3,-7.753184E-2,-2.4371129E-2,5.710971E-2,-6.8001873E-3,7.6127075E-2],"split_indices":[3,3,8,9,9,13,30,0,8,22,8,0,18,20,38,0,35,6,4,20,27,0,0,6,0,0,4,0,0,0,0,0,0,0,0,0,0,0,0,0,0],"split_type":[0,0,0,0,0,0,0,0,0,0,0,0,0,0,0,0,0,0,0,0,0,0,0,0,0,0,0,0,0,0,0,0,0,0,0,0,0,0,0,0,0],"sum_hessian":[6.616439E1,4.5559162E1,2.0605228E1,1.3632976E1,3.1926186E1,1.0882523E1,9.722706E0,1.3270859E0,1.230589E1,2.197195E1,9.954234E0,7.918783E0,2.9637396E0,4.015596E0,5.7071104E0,1.7403855E0,1.0565504E1,2.4711483E0,1.9500803E1,3.2858725E0,6.6683617E0,1.0235332E0,1.9402065E0,2.0536208E0,1.9619751E0,1.0769122E0,4.630198E0,9.105724E0,1.4597796E0,1.2621479E0,1.2090002E0,1.0904508E1,8.596295E0,1.2298658E0,2.0560067E0,1.9475219E0,4.72084E0,1.0347885E0,1.0188324E0,1.1213577E0,3.5088406E0],"tree_param":{"num_deleted":"0","num_feature":"39","num_nodes":"41","size_leaf_vector":"1"}},{"base_weights":[5.260574E-2,-1.10826984E-1,1.0665761E0,1.1188499E-1,-2.2665638E-2],"categories":[],"categories_nodes":[],"categories_segments":[],"categories_sizes":[],"default_left":[0,0,0,0,0],"id":18,"left_children":[1,-1,3,-1,-1],"loss_changes":[7.9606316E1,0E0,2.6921654E0,0E0,0E0],"parents":[2147483647,0,0,2,2],"right_children":[2,-1,4,-1,-1],"split_conditions":[4E1,-1.10826984E-1,7.1E1,1.1188499E-1,-2.2665638E-2],"split_indices":[7,0,7,0,0],"split_type":[0,0,0,0,0],"sum_hessian":[6.562535E1,3.0552908E1,3.5072445E1,3.3839462E1,1.232983E0],"tree_param":{"num_deleted":"0","num_feature":"39","num_nodes":"5","size_leaf_vector":"1"}},{"base_weights":[5.5195945E-3,-3.807489E-1,3.226286E-1,5.9352282E-2,-5.1813483E-1,5.8621633E-1,7.942884E-2,3.8025734E-1,-2.4054132E-1,2.9746128E-2,-5.894882E-1,1.6392685E-1,7.6681197E-1,4.2524394E-1,-1.09601855E-1,6.231119E-2,-8.142398E-3,-4.8133472E-1,2.6022395E-2,3.257418E-2,-2.6951075E-2,1.1418509E-2,-6.478766E-1,-5.3100854E-2,4.2393196E-1,8.294755E-1,9.128707E-3,5.7106125E-1,-1.9672096E-2,-6.439867E-2,5.6070767E-2,-6.3978486E-2,-6.514539E-3,-7.937261E-2,-2.3659004E-2,-1.8519884E-2,8.133785E-2,3.4560513E-2,8.966615E-2,1.9914163E-3,7.2340325E-2,-1.7594168E-2,4.3088082E-2],"categories":[],"categories_nodes":[],"categories_segments":[],"categories_sizes":[],"default_left":[0,0,0,0,0,0,0,0,0,0,0,0,0,0,0,0,0,0,0,0,0,0,0,0,0,0,0,0,0,0,0,0,0,0,0,0,0,0,0,0,0,0,0],"id":19,"left_children":[1,3,5,7,9,11,13,15,17,19,21,23,25,27,29,-1,-1,31,-1,-1,-1,-1,33,-1,35,37,-1,39,-1,-1,41,-1,-1,-1,-1,-1,-1,-1,-1,-1,-1,-1,-1],"loss_changes":[7.3721128E0,1.6717732E0,2.0716014E0,7.992022E-1,8.3014584E-1,1.0716233E0,1.2456545E0,4.9249953E-1,6.5749997E-1,3.842781E-1,8.315854E-1,1.3046819E0,3.7827682E-1,7.188723E-1,1.1564772E0,0E0,0E0,1.780268E-1,0E0,0E0,0E0,0E0,8.4255457E-1,0E0,1.3140056E0,5.153179E-3,0E0,4.6198428E-1,0E0,0E0,9.9584347E-1,0E0,0E0,0E0,0E0,0E0,0E0,0E0,0E0,0E0,0E0,0E0,0E0],"parents":[2147483647,0,0,1,1,2,2,3,3,4,4,5,5,6,6,7,7,8,8,9,9,10,10,11,11,12,12,13,13,14,14,17,17,22,22,24,24,25,25,27,27,30,30],"right_children":[2,4,6,8,10,12,14,16,18,20,22,24,26,28,30,-1,-1,32,-1,-1,-1,-1,34,-1,36,38,-1,40,-1,-1,42,-1,-1,-1,-1,-1,-1,-1,-1,-1,-1,-1,-1],"split_conditions":[8.3E1,5.82E0,6.03E0,5.3173378E1,4.0918964E1,7E0,5.5707558E1,5.610321E1,2.4E0,1.2E0,5E-1,4.9861042E1,8.16E0,1.4E2,9E-1,6.231119E-2,-8.142398E-3,4.7E1,2.6022395E-2,3.257418E-2,-2.6951075E-2,1.1418509E-2,6.3E1,-5.3100854E-2,6E0,1.02E2,9.128707E-3,1.3E0,-1.9672096E-2,-6.439867E-2,5.578793E1,-6.3978486E-2,-6.514539E-3,-7.937261E-2,-2.3659004E-2,-1.8519884E-2,8.133785E-2,3.4560513E-2,8.966615E-2,1.9914163E-3,7.2340325E-2,-1.7594168E-2,4.3088082E-2],"split_indices":[3,8,8,20,18,10,2,36,38,38,9,2,26,17,38,0,0,22,0,0,0,0,3,0,25,3,0,30,0,0,4,0,0,0,0,0,0,0,0,0,0,0,0],"split_type":[0,0,0,0,0,0,0,0,0,0,0,0,0,0,0,0,0,0,0,0,0,0,0,0,0,0,0,0,0,0,0,0,0,0,0,0,0,0,0,0,0,0,0],"sum_hessian":[5.8182945E1,2.6140581E1,3.2042366E1,6.354051E0,1.978653E1,1.4699807E1,1.7342558E1,2.9400442E0,3.4140067E0,2.3471596E0,1.743937E1,4.9748178E0,9.72499E0,5.6877375E0,1.165482E1,1.6974761E0,1.2425681E0,2.3316383E0,1.0823685E0,1.1355159E0,1.2116436E0,1.2629704E0,1.61764E1,1.0707207E0,3.904097E0,8.6909E0,1.0340899E0,4.6738214E0,1.0139163E0,2.0749307E0,9.57989E0,1.2996105E0,1.0320278E0,1.1255235E1,4.9211645E0,1.7271419E0,2.1769552E0,1.8087037E0,6.8821964E0,1.2569852E0,3.416836E0,6.2448363E0,3.3350534E0],"tree_param":{"num_deleted":"0","num_feature":"39","num_nodes":"43","size_leaf_vector":"1"}},{"base_weights":[2.519122E-3,-1.0876807E-1,1.0162814E0,1.0940558E-1,-3.4888588E-2],"categories":[],"categories_nodes":[],"categories_segments":[],"categories_sizes":[],"default_left":[0,0,0,0,0],"id":20,"left_children":[1,-1,3,-1,-1],"loss_changes":[6.737472E1,0E0,3.7354279E0,0E0,0E0],"parents":[2147483647,0,0,2,2],"right_children":[2,-1,4,-1,-1],"split_conditions":[4E1,-1.0876807E-1,6.9E1,1.0940558E-1,-3.4888588E-2],"split_indices":[7,0,7,0,0],"split_type":[0,0,0,0,0],"sum_hessian":[5.896121E1,2.8374432E1,3.0586777E1,2.912604E1,1.4607364E0],"tree_param":{"num_deleted":"0","num_feature":"39","num_nodes":"5","size_leaf_vector":"1"}},{"base_weights":[-1.0303991E-2,-1.0732062E-1,9.849917E-1,1.07736684E-1,-6.653876E-2],"categories":[],"categories_nodes":[],"categories_segments":[],"categories_sizes":[],"default_left":[0,0,0,0,0],"id":21,"left_children":[1,-1,3,-1,-1],"loss_changes":[5.943579E1,0E0,5.1410046E0,0E0,0E0],"parents":[2147483647,0,0,2,2],"right_children":[2,-1,4,-1,-1],"split_conditions":[4E1,-1.0732062E-1,6.9E1,1.07736684E-1,-6.653876E-2],"split_indices":[7,0,7,0,0],"split_type":[0,0,0,0,0],"sum_hessian":[5.4183456E1,2.616398E1,2.8019476E1,2.6863094E1,1.1563827E0],"tree_param":{"num_deleted":"0","num_feature":"39","num_nodes":"5","size_leaf_vector":"1"}},{"base_weights":[-1.4465198E-2,-1.05819814E-1,9.92695E-1,1.0621033E-1,-2.6809514E-2],"categories":[],"categories_nodes":[],"categories_segments":[],"categories_sizes":[],"default_left":[0,0,0,0,0],"id":22,"left_children":[1,-1,3,-1,-1],"loss_changes":[5.30959E1,0E0,2.53483E0,0E0,0E0],"parents":[2147483647,0,0,2,2],"right_children":[2,-1,4,-1,-1],"split_conditions":[4E1,-1.05819814E-1,6.8E1,1.0621033E-1,-2.6809514E-2],"split_indices":[7,0,7,0,0],"split_type":[0,0,0,0,0],"sum_hessian":[4.851021E1,2.3797686E1,2.471252E1,2.3572414E1,1.1401061E0],"tree_param":{"num_deleted":"0","num_feature":"39","num_nodes":"5","size_leaf_vector":"1"}},{"base_weights":[-3.0344268E-3,-1.0450556E-1,1.0096178E0,1.0471386E-1,1.7412102E-2],"categories":[],"categories_nodes":[],"categories_segments":[],"categories_sizes":[],"default_left":[0,0,0,0,0],"id":23,"left_children":[1,-1,3,-1,-1],"loss_changes":[5.0347065E1,0E0,5.762768E-1,0E0,0E0],"parents":[2147483647,0,0,2,2],"right_children":[2,-1,4,-1,-1],"split_conditions":[4E1,-1.0450556E-1,6.8E1,1.0471386E-1,1.7412102E-2],"split_indices":[7,0,7,0,0],"split_type":[0,0,0,0,0],"sum_hessian":[4.5713158E1,2.2514101E1,2.3199057E1,2.1959574E1,1.2394818E0],"tree_param":{"num_deleted":"0","num_feature":"39","num_nodes":"5","size_leaf_vector":"1"}},{"base_weights":[-1.9808855E-2,-1.032652E-1,9.2236763E-1,1.0348689E-1,-6.263234E-2],"categories":[],"categories_nodes":[],"categories_segments":[],"categories_sizes":[],"default_left":[0,0,0,0,0],"id":24,"left_children":[1,-1,3,-1,-1],"loss_changes":[4.153921E1,0E0,4.579235E0,0E0,0E0],"parents":[2147483647,0,0,2,2],"right_children":[2,-1,4,-1,-1],"split_conditions":[4E1,-1.032652E-1,6.9E1,1.0348689E-1,-6.263234E-2],"split_indices":[7,0,7,0,0],"split_type":[0,0,0,0,0],"sum_hessian":[4.153139E1,1.9968815E1,2.1562578E1,2.04116E1,1.1509777E0],"tree_param":{"num_deleted":"0","num_feature":"39","num_nodes":"5","size_leaf_vector":"1"}},{"base_weights":[-6.3623656E-3,-1.0217934E-1,9.317859E-1,1.0287036E-1,-2.4872182E-2],"categories":[],"categories_nodes":[],"categories_segments":[],"categories_sizes":[],"default_left":[0,0,0,0,0],"id":25,"left_children":[1,-1,3,-1,-1],"loss_changes":[3.946592E1,0E0,2.7199898E0,0E0,0E0],"parents":[2147483647,0,0,2,2],"right_children":[2,-1,4,-1,-1],"split_conditions":[4E1,-1.0217934E-1,7.1E1,1.0287036E-1,-2.4872182E-2],"split_indices":[7,0,7,0,0],"split_type":[0,0,0,0,0],"sum_hessian":[3.942917E1,1.8891869E1,2.05373E1,1.909798E1,1.4393195E0],"tree_param":{"num_deleted":"0","num_feature":"39","num_nodes":"5","size_leaf_vector":"1"}},{"base_weights":[-8.755929E-3,-1.0074844E-1,9.0797395E-1,1.0134435E-1,-2.3451881E-2],"categories":[],"categories_nodes":[],"categories_segments":[],"categories_sizes":[],"default_left":[0,0,0,0,0],"id":26,"left_children":[1,-1,3,-1,-1],"loss_changes":[3.370371E1,0E0,2.5511074E0,0E0,0E0],"parents":[2147483647,0,0,2,2],"right_children":[2,-1,4,-1,-1],"split_conditions":[4E1,-1.0074844E-1,7.1E1,1.0134435E-1,-2.3451881E-2],"split_indices":[7,0,7,0,0],"split_type":[0,0,0,0,0],"sum_hessian":[3.481282E1,1.6613882E1,1.8198938E1,1.6764294E1,1.434646E0],"tree_param":{"num_deleted":"0","num_feature":"39","num_nodes":"5","size_leaf_vector":"1"}},{"base_weights":[-3.3160239E-3,-9.963649E-2,8.953502E-1,1.00306354E-1,-2.211548E-2],"categories":[],"categories_nodes":[],"categories_segments":[],"categories_sizes":[],"default_left":[0,0,0,0,0],"id":27,"left_children":[1,-1,3,-1,-1],"loss_changes":[3.1114813E1,0E0,2.4231806E0,0E0,0E0],"parents":[2147483647,0,0,2,2],"right_children":[2,-1,4,-1,-1],"split_conditions":[4E1,-9.963649E-2,7.1E1,1.00306354E-1,-2.211548E-2],"split_indices":[7,0,7,0,0],"split_type":[0,0,0,0,0],"sum_hessian":[3.2866043E1,1.5561489E1,1.7304552E1,1.5874669E1,1.4298831E0],"tree_param":{"num_deleted":"0","num_feature":"39","num_nodes":"5","size_leaf_vector":"1"}},{"base_weights":[4.470922E-3,-9.832379E-2,8.893295E-1,9.871795E-2,-2.1613566E-2],"categories":[],"categories_nodes":[],"categories_segments":[],"categories_sizes":[],"default_left":[0,0,0,0,0],"id":28,"left_children":[1,-1,3,-1,-1],"loss_changes":[2.7000643E1,0E0,1.9757376E0,0E0,0E0],"parents":[2147483647,0,0,2,2],"right_children":[2,-1,4,-1,-1],"split_conditions":[4E1,-9.832379E-2,6.8E1,9.871795E-2,-2.1613566E-2],"split_indices":[7,0,7,0,0],"split_type":[0,0,0,0,0],"sum_hessian":[2.8893293E1,1.3600631E1,1.5292662E1,1.4147408E1,1.145254E0],"tree_param":{"num_deleted":"0","num_feature":"39","num_nodes":"5","size_leaf_vector":"1"}},{"base_weights":[-6.382946E-3,2.3863685E-1,-2.7891663E-1,2.183854E-2,5.098775E-1,-5.875786E-2,-1.12984955E-1,-1.5954027E-1,2.729871E-1,6.880042E-2,1.1148648E-1,-3.7926987E-1,4.722835E-2,8.135551E-2,-5.0570626E-2,4.7144596E-2,3.0854037E-2,3.83707E-2,-2.2797469E-2,-6.607838E-3,-5.04839E-2,-2.4356368E-1,2.2849743E-1,2.762107E-2,-1.4686038E-2,1.7730176E-2,-1.30805615E-2,3.4789857E-3,-3.903154E-2,7.265195E-4,3.4473743E-2],"categories":[],"categories_nodes":[],"categories_segments":[],"categories_sizes":[],"default_left":[0,0,0,0,0,0,0,0,0,0,0,0,0,0,0,0,0,0,0,0,0,0,0,0,0,0,0,0,0,0,0],"id":29,"left_children":[1,3,5,7,9,-1,11,13,15,-1,17,19,21,23,-1,-1,25,-1,-1,-1,-1,27,29,-1,-1,-1,-1,-1,-1,-1,-1],"loss_changes":[1.9377438E0,8.882578E-1,6.3667154E-1,4.7836253E-1,4.022677E-1,0E0,4.5160905E-1,5.5595505E-1,1.9552335E-1,0E0,3.9046076E-1,1.2117708E-1,4.3709025E-1,2.4075133E-1,0E0,0E0,9.514295E-2,0E0,0E0,0E0,0E0,1.468583E-1,1.2539536E-1,0E0,0E0,0E0,0E0,0E0,0E0,0E0,0E0],"parents":[2147483647,0,0,1,1,2,2,3,3,4,4,6,6,7,7,8,8,10,10,11,11,12,12,13,13,16,16,21,21,22,22],"right_children":[2,4,6,8,10,-1,12,14,16,-1,18,20,22,24,-1,-1,26,-1,-1,-1,-1,28,30,-1,-1,-1,-1,-1,-1,-1,-1],"split_conditions":[1.8E0,1.1E2,5.2E1,6.3278793E1,2.2E0,-5.875786E-2,5.5706978E1,5.9338673E1,5.8605537E1,6.880042E-2,2E0,2.510602E1,6.1E1,9.2E1,-5.0570626E-2,4.7144596E-2,6.9873344E1,3.83707E-2,-2.2797469E-2,-6.607838E-3,-5.04839E-2,5.2543346E1,8.7E1,2.762107E-2,-1.4686038E-2,1.7730176E-2,-1.30805615E-2,3.4789857E-3,-3.903154E-2,7.265195E-4,3.4473743E-2],"split_indices":[9,3,3,2,30,0,15,2,16,0,27,1,35,35,0,0,2,0,0,0,0,18,3,0,0,0,0,0,0,0,0],"split_type":[0,0,0,0,0,0,0,0,0,0,0,0,0,0,0,0,0,0,0,0,0,0,0,0,0,0,0,0,0,0,0],"sum_hessian":[2.7021742E1,1.4294622E1,1.2727119E1,8.545141E0,5.7494817E0,3.5613317E0,9.165788E0,5.173564E0,3.371577E0,3.4707148E0,2.2787669E0,2.9294956E0,6.2362924E0,3.501714E0,1.6718502E0,1.3324286E0,2.0391483E0,1.1922983E0,1.0864686E0,1.2751868E0,1.6543089E0,2.2627418E0,3.9735506E0,1.7754745E0,1.7262393E0,1.0191443E0,1.020004E0,1.0445014E0,1.2182403E0,1.7346333E0,2.2389174E0],"tree_param":{"num_deleted":"0","num_feature":"39","num_nodes":"31","size_leaf_vector":"1"}},{"base_weights":[2.0919874E-2,-9.7263046E-2,8.6549926E-1,9.824856E-2,-1.9725582E-2],"categories":[],"categories_nodes":[],"categories_segments":[],"categories_sizes":[],"default_left":[0,0,0,0,0],"id":30,"left_children":[1,-1,3,-1,-1],"loss_changes":[2.4722126E1,0E0,2.1720457E0,0E0,0E0],"parents":[2147483647,0,0,2,2],"right_children":[2,-1,4,-1,-1],"split_conditions":[4E1,-9.7263046E-2,7.1E1,9.824856E-2,-1.9725582E-2],"split_indices":[7,0,7,0,0],"split_type":[0,0,0,0,0],"sum_hessian":[2.745835E1,1.2546832E1,1.4911518E1,1.3500891E1,1.4106274E0],"tree_param":{"num_deleted":"0","num_feature":"39","num_nodes":"5","size_leaf_vector":"1"}},{"base_weights":[1.1487749E-2,-9.637585E-2,8.844341E-1,9.6755765E-2,-2.5801808E-3],"categories":[],"categories_nodes":[],"categories_segments":[],"categories_sizes":[],"default_left":[0,0,0,0,0],"id":31,"left_children":[1,-1,3,-1,-1],"loss_changes":[2.3024075E1,0E0,1.1042004E0,0E0,0E0],"parents":[2147483647,0,0,2,2],"right_children":[2,-1,4,-1,-1],"split_conditions":[4E1,-9.637585E-2,6.9E1,9.6755765E-2,-2.5801808E-3],"split_indices":[7,0,7,0,0],"split_type":[0,0,0,0,0],"sum_hessian":[2.504336E1,1.1779453E1,1.3263907E1,1.2096289E1,1.1676183E0],"tree_param":{"num_deleted":"0","num_feature":"39","num_nodes":"5","size_leaf_vector":"1"}},{"base_weights":[1.799986E-2,-9.4970666E-2,8.5214967E-1,9.573894E-2,-1.7032577E-2],"categories":[],"categories_nodes":[],"categories_segments":[],"categories_sizes":[],"default_left":[0,0,0,0,0],"id":32,"left_children":[1,-1,3,-1,-1],"loss_changes":[1.9765192E1,0E0,1.5768871E0,0E0,0E0],"parents":[2147483647,0,0,2,2],"right_children":[2,-1,4,-1,-1],"split_conditions":[4E1,-9.4970666E-2,6.9E1,9.573894E-2,-1.7032577E-2],"split_indices":[7,0,7,0,0],"split_type":[0,0,0,0,0],"sum_hessian":[2.248317E1,1.0344208E1,1.2138963E1,1.1063855E1,1.0751073E0],"tree_param":{"num_deleted":"0","num_feature":"39","num_nodes":"5","size_leaf_vector":"1"}},{"base_weights":[-1.6455004E-2,-2.3802286E-1,1.7666836E-1,-3.8844883E-1,-5.5443455E-2,-1.9416642E-1,3.543327E-1,-5.1891524E-2,-1.838304E-1,-2.2548082E-1,1.7868681E-1,3.7874755E-2,-5.2040827E-2,-7.359253E-3,4.6502957E-1,-3.3118334E-2,1.0195529E-2,3.1979978E-3,-3.25048E-2,3.8680945E-2,-1.1736046E-2,2.0215651E-2,-1.5508597E-2,8.334327E-3,5.666102E-1,6.676951E-2,9.199213E-3],"categories":[],"categories_nodes":[],"categories_segments":[],"categories_sizes":[],"default_left":[0,0,0,0,0,0,0,0,0,0,0,0,0,0,0,0,0,0,0,0,0,0,0,0,0,0,0],"id":33,"left_children":[1,3,5,7,9,11,13,-1,15,17,19,21,-1,-1,23,-1,-1,-1,-1,-1,-1,-1,-1,-1,25,-1,-1],"loss_changes":[9.88027E-1,2.72927E-1,8.848331E-1,5.7091355E-2,2.7954027E-1,3.7232196E-1,4.4766688E-1,0E0,1.9263317E-1,1.1097114E-1,2.3555037E-1,1.47186E-1,0E0,0E0,2.2692704E-1,0E0,0E0,0E0,0E0,0E0,0E0,0E0,0E0,0E0,1.9823337E-1,0E0,0E0],"parents":[2147483647,0,0,1,1,2,2,3,3,4,4,5,5,6,6,8,8,9,9,10,10,11,11,14,14,24,24],"right_children":[2,4,6,8,10,12,14,-1,16,18,20,22,-1,-1,24,-1,-1,-1,-1,-1,-1,-1,-1,-1,26,-1,-1],"split_conditions":[8.3E1,1.8E0,1.2E0,4.9E1,5.7717957E1,1.2E2,1.8E1,-5.1891524E-2,2E0,3.3E1,1.7E0,1.8E0,-5.2040827E-2,-7.359253E-3,9.9E1,-3.3118334E-2,1.0195529E-2,3.1979978E-3,-3.25048E-2,3.8680945E-2,-1.1736046E-2,2.0215651E-2,-1.5508597E-2,8.334327E-3,4.9E1,6.676951E-2,9.199213E-3],"split_indices":[3,27,38,3,4,17,6,0,38,24,38,9,0,0,3,0,0,0,0,0,0,0,0,0,23,0,0],"split_type":[0,0,0,0,0,0,0,0,0,0,0,0,0,0,0,0,0,0,0,0,0,0,0,0,0,0,0],"sum_hessian":[2.110744E1,9.721548E0,1.1385893E1,4.7118907E0,5.009657E0,3.6579182E0,7.727975E0,1.9393386E0,2.7725523E0,2.9234447E0,2.0862122E0,2.6540895E0,1.0038286E0,1.6571307E0,6.070844E0,1.7245245E0,1.0480279E0,1.0045888E0,1.9188559E0,1.0449954E0,1.0412167E0,1.4078372E0,1.2462523E0,1.6587187E0,4.4121256E0,3.3020456E0,1.11008E0],"tree_param":{"num_deleted":"0","num_feature":"39","num_nodes":"27","size_leaf_vector":"1"}},{"base_weights":[3.683496E-2,-9.371839E-2,9.231218E-2],"categories":[],"categories_nodes":[],"categories_segments":[],"categories_sizes":[],"default_left":[0,0,0],"id":34,"left_children":[1,-1,-1],"loss_changes":[1.87441E1,0E0,0E0],"parents":[2147483647,0,0],"right_children":[2,-1,-1],"split_conditions":[4E1,-9.371839E-2,9.231218E-2],"split_indices":[7,0,0],"split_type":[0,0,0],"sum_hessian":[1.9710983E1,9.363347E0,1.0347635E1],"tree_param":{"num_deleted":"0","num_feature":"39","num_nodes":"3","size_leaf_vector":"1"}},{"base_weights":[5.710273E-3,-9.297703E-2,7.82173E-1,9.3953E-2,-2.2804579E-2],"categories":[],"categories_nodes":[],"categories_segments":[],"categories_sizes":[],"default_left":[0,0,0,0,0],"id":35,"left_children":[1,-1,3,-1,-1],"loss_changes":[1.5862148E1,0E0,2.110559E0,0E0,0E0],"parents":[2147483647,0,0,2,2],"right_children":[2,-1,4,-1,-1],"split_conditions":[4E1,-9.297703E-2,7.1E1,9.3953E-2,-2.2804579E-2],"split_indices":[7,0,7,0,0],"split_type":[0,0,0,0,0],"sum_hessian":[1.983648E1,8.907409E0,1.092907E1,9.516677E0,1.4123936E0],"tree_param":{"num_deleted":"0","num_feature":"39","num_nodes":"5","size_leaf_vector":"1"}},{"base_weights":[2.2758575E-2,-2.0444341E-1,3.104774E-1,-3.977747E-1,-7.572705E-2,-1.4707394E-2,3.9960575E-1,-4.858727E-2,-1.2226588E-2,-1.51018E-1,1.9393083E-2,4.9677014E-1,-5.9409193E-3,7.7400445E-3,-2.6417106E-1,1.007595E-1,7.189507E-2,-1.0390177E-4,-3.379386E-2,-1.0322052E-2,2.7817214E-2],"categories":[],"categories_nodes":[],"categories_segments":[],"categories_sizes":[],"default_left":[0,0,0,0,0,0,0,0,0,0,0,0,0,0,0,0,0,0,0,0,0],"id":36,"left_children":[1,3,5,7,9,-1,11,-1,-1,13,-1,15,-1,-1,17,19,-1,-1,-1,-1,-1],"loss_changes":[1.2412635E0,2.3540705E-1,3.9916378E-1,3.839922E-2,1.8441513E-1,0E0,3.5308838E-1,0E0,0E0,1.8935755E-1,0E0,4.6378255E-1,0E0,0E0,8.887705E-2,1.5006636E-1,0E0,0E0,0E0,0E0,0E0],"parents":[2147483647,0,0,1,1,2,2,3,3,4,4,6,6,9,9,11,11,14,14,15,15],"right_children":[2,4,6,8,10,-1,12,-1,-1,14,-1,16,-1,-1,18,20,-1,-1,-1,-1,-1],"split_conditions":[9.9E1,4.8E1,1.2E1,6.3721054E1,6.3655586E1,-1.4707394E-2,1.28E2,-4.858727E-2,-1.2226588E-2,5.0492477E1,1.9393083E-2,2.9E1,-5.9409193E-3,7.7400445E-3,6.4E1,6.6E1,7.189507E-2,-1.0390177E-4,-3.379386E-2,-1.0322052E-2,2.7817214E-2],"split_indices":[3,3,21,2,4,0,17,0,0,20,0,6,0,0,3,35,0,0,0,0,0],"split_type":[0,0,0,0,0,0,0,0,0,0,0,0,0,0,0,0,0,0,0,0,0],"sum_hessian":[1.701718E1,9.6703E0,7.3468804E0,3.029575E0,6.6407247E0,1.0918086E0,6.255072E0,1.716994E0,1.312581E0,5.535208E0,1.1055164E0,5.094429E0,1.160643E0,1.93833E0,3.596878E0,2.3533545E0,2.7410743E0,1.0096165E0,2.5872617E0,1.2892407E0,1.0641137E0],"tree_param":{"num_deleted":"0","num_feature":"39","num_nodes":"21","size_leaf_vector":"1"}},{"base_weights":[-2.3094643E-2,-9.1620244E-2,7.4521244E-1,9.2186846E-2,-2.3399826E-2],"categories":[],"categories_nodes":[],"categories_segments":[],"categories_sizes":[],"default_left":[0,0,0,0,0],"id":37,"left_children":[1,-1,3,-1,-1],"loss_changes":[1.340753E1,0E0,2.0355215E0,0E0,0E0],"parents":[2147483647,0,0,2,2],"right_children":[2,-1,4,-1,-1],"split_conditions":[4E1,-9.1620244E-2,7.1E1,9.2186846E-2,-2.3399826E-2],"split_indices":[7,0,7,0,0],"split_type":[0,0,0,0,0],"sum_hessian":[1.7544325E1,8.024205E0,9.52012E0,8.11473E0,1.4053904E0],"tree_param":{"num_deleted":"0","num_feature":"39","num_nodes":"5","size_leaf_vector":"1"}},{"base_weights":[5.8172215E-3,-9.009491E-2,7.3411983E-1,9.138978E-2,-2.2077007E-2],"categories":[],"categories_nodes":[],"categories_segments":[],"categories_sizes":[],"default_left":[0,0,0,0,0],"id":38,"left_children":[1,-1,3,-1,-1],"loss_changes":[1.19958315E1,0E0,1.9303141E0,0E0,0E0],"parents":[2147483647,0,0,2,2],"right_children":[2,-1,4,-1,-1],"split_conditions":[4E1,-9.009491E-2,7.1E1,9.138978E-2,-2.2077007E-2],"split_indices":[7,0,7,0,0],"split_type":[0,0,0,0,0],"sum_hessian":[1.6162968E1,7.09382E0,9.069147E0,7.6683483E0,1.4007984E0],"tree_param":{"num_deleted":"0","num_feature":"39","num_nodes":"5","size_leaf_vector":"1"}},{"base_weights":[1.643081E-3,-8.8059075E-2,6.981266E-1,8.934433E-2,-2.083106E-2],"categories":[],"categories_nodes":[],"categories_segments":[],"categories_sizes":[],"default_left":[0,0,0,0,0],"id":39,"left_children":[1,-1,3,-1,-1],"loss_changes":[9.833828E0,0E0,1.769258E0,0E0,0E0],"parents":[2147483647,0,0,2,2],"right_children":[2,-1,4,-1,-1],"split_conditions":[4E1,-8.8059075E-2,7.1E1,8.934433E-2,-2.083106E-2],"split_indices":[7,0,7,0,0],"split_type":[0,0,0,0,0],"sum_hessian":[1.40034895E1,6.0613084E0,7.942181E0,6.5460014E0,1.3961797E0],"tree_param":{"num_deleted":"0","num_feature":"39","num_nodes":"5","size_leaf_vector":"1"}},{"base_weights":[-2.9050505E-2,-8.807122E-2,7.128307E-1,8.829867E-2,-2.510427E-2],"categories":[],"categories_nodes":[],"categories_segments":[],"categories_sizes":[],"default_left":[0,0,0,0,0],"id":40,"left_children":[1,-1,3,-1,-1],"loss_changes":[9.722713E0,0E0,1.5740447E0,0E0,0E0],"parents":[2147483647,0,0,2,2],"right_children":[2,-1,4,-1,-1],"split_conditions":[4E1,-8.807122E-2,6.8E1,8.829867E-2,-2.510427E-2],"split_indices":[7,0,7,0,0],"split_type":[0,0,0,0,0],"sum_hessian":[1.3394518E1,6.1487584E0,7.2457595E0,6.229893E0,1.0158665E0],"tree_param":{"num_deleted":"0","num_feature":"39","num_nodes":"5","size_leaf_vector":"1"}},{"base_weights":[1.6624058E-2,-8.69707E-2,7.964158E-1,-4.3132515E-3,9.325536E-2],"categories":[],"categories_nodes":[],"categories_segments":[],"categories_sizes":[],"default_left":[0,0,0,0,0],"id":41,"left_children":[1,-1,3,-1,-1],"loss_changes":[9.894061E0,0E0,9.093404E-1,0E0,0E0],"parents":[2147483647,0,0,2,2],"right_children":[2,-1,4,-1,-1],"split_conditions":[4E1,-8.69707E-2,5E-1,-4.3132515E-3,9.325536E-2],"split_indices":[7,0,38,0,0],"split_type":[0,0,0,0,0],"sum_hessian":[1.2313123E1,5.7089167E0,6.6042056E0,1.01681E0,5.5873957E0],"tree_param":{"num_deleted":"0","num_feature":"39","num_nodes":"5","size_leaf_vector":"1"}},{"base_weights":[-2.7213158E-2,-8.55895E-2,6.404118E-1,8.625468E-2,-2.1810263E-2],"categories":[],"categories_nodes":[],"categories_segments":[],"categories_sizes":[],"default_left":[0,0,0,0,0],"id":42,"left_children":[1,-1,3,-1,-1],"loss_changes":[7.727237E0,0E0,1.6677179E0,0E0,0E0],"parents":[2147483647,0,0,2,2],"right_children":[2,-1,4,-1,-1],"split_conditions":[4E1,-8.55895E-2,7.1E1,8.625468E-2,-2.1810263E-2],"split_indices":[7,0,7,0,0],"split_type":[0,0,0,0,0],"sum_hessian":[1.1976283E1,5.2177773E0,6.7585063E0,5.365517E0,1.3929893E0],"tree_param":{"num_deleted":"0","num_feature":"39","num_nodes":"5","size_leaf_vector":"1"}},{"base_weights":[6.4853E-3,-8.3536714E-2,6.3108844E-1,8.5472435E-2,-2.0582056E-2],"categories":[],"categories_nodes":[],"categories_segments":[],"categories_sizes":[],"default_left":[0,0,0,0,0],"id":43,"left_children":[1,-1,3,-1,-1],"loss_changes":[6.8792796E0,0E0,1.5805032E0,0E0,0E0],"parents":[2147483647,0,0,2,2],"right_children":[2,-1,4,-1,-1],"split_conditions":[4E1,-8.3536714E-2,7.1E1,8.5472435E-2,-2.0582056E-2],"split_indices":[7,0,7,0,0],"split_type":[0,0,0,0,0],"sum_hessian":[1.1080265E1,4.575661E0,6.5046034E0,5.1161866E0,1.3884168E0],"tree_param":{"num_deleted":"0","num_feature":"39","num_nodes":"5","size_leaf_vector":"1"}},{"base_weights":[-5.9474856E-2,-8.2892455E-2,5.79449E-1,8.22167E-2,-1.9424587E-2],"categories":[],"categories_nodes":[],"categories_segments":[],"categories_sizes":[],"default_left":[0,0,0,0,0],"id":44,"left_children":[1,-1,3,-1,-1],"loss_changes":[5.88552E0,0E0,1.3982489E0,0E0,0E0],"parents":[2147483647,0,0,2,2],"right_children":[2,-1,4,-1,-1],"split_conditions":[4E1,-8.2892455E-2,6.9E1,8.22167E-2,-1.9424587E-2],"split_indices":[7,0,7,0,0],"split_type":[0,0,0,0,0],"sum_hessian":[9.994677E0,4.399285E0,5.5953918E0,4.2115307E0,1.3838612E0],"tree_param":{"num_deleted":"0","num_feature":"39","num_nodes":"5","size_leaf_vector":"1"}},{"base_weights":[-6.3425703E-3,-8.16422E-2,6.976578E-1,8.4242426E-2,1.4965377E-2],"categories":[],"categories_nodes":[],"categories_segments":[],"categories_sizes":[],"default_left":[0,0,0,0,0],"id":45,"left_children":[1,-1,3,-1,-1],"loss_changes":[6.2586703E0,0E0,3.4012675E-1,0E0,0E0],"parents":[2147483647,0,0,2,2],"right_children":[2,-1,4,-1,-1],"split_conditions":[4E1,-8.16422E-2,1.29E2,8.4242426E-2,1.4965377E-2],"split_indices":[7,0,3,0,0],"split_type":[0,0,0,0,0],"sum_hessian":[8.97567E0,4.099159E0,4.876511E0,3.43249E0,1.444021E0],"tree_param":{"num_deleted":"0","num_feature":"39","num_nodes":"5","size_leaf_vector":"1"}},{"base_weights":[-1.1060191E-1,-8.010017E-2,4.6031874E-1,8.078185E-2,-5.9504367E-2],"categories":[],"categories_nodes":[],"categories_segments":[],"categories_sizes":[],"default_left":[0,0,0,0,0],"id":46,"left_children":[1,-1,3,-1,-1],"loss_changes":[4.194558E0,0E0,2.6620018E0,0E0,0E0],"parents":[2147483647,0,0,2,2],"right_children":[2,-1,4,-1,-1],"split_conditions":[4E1,-8.010017E-2,6.8E1,8.078185E-2,-5.9504367E-2],"split_indices":[7,0,7,0,0],"split_type":[0,0,0,0,0],"sum_hessian":[8.706232E0,3.7583525E0,4.94788E0,3.8987083E0,1.0491716E0],"tree_param":{"num_deleted":"0","num_feature":"39","num_nodes":"5","size_leaf_vector":"1"}},{"base_weights":[1.8997224E-2,-7.921198E-2,6.4340824E-1,-6.5744887E-3,8.023197E-2],"categories":[],"categories_nodes":[],"categories_segments":[],"categories_sizes":[],"default_left":[0,0,0,0,0],"id":47,"left_children":[1,-1,3,-1,-1],"loss_changes":[5.3192334E0,0E0,7.19604E-1,0E0,0E0],"parents":[2147483647,0,0,2,2],"right_children":[2,-1,4,-1,-1],"split_conditions":[4E1,-7.921198E-2,1.2E1,-6.5744887E-3,8.023197E-2],"split_indices":[7,0,21,0,0],"split_type":[0,0,0,0,0],"sum_hessian":[8.496265E0,3.5787895E0,4.9174757E0,1.00754E0,3.9099355E0],"tree_param":{"num_deleted":"0","num_feature":"39","num_nodes":"5","size_leaf_vector":"1"}},{"base_weights":[-3.1276796E-2,-7.685893E-2,5.50439E-1,7.756304E-2,-1.8512508E-2],"categories":[],"categories_nodes":[],"categories_segments":[],"categories_sizes":[],"default_left":[0,0,0,0,0],"id":48,"left_children":[1,-1,3,-1,-1],"loss_changes":[4.0588937E0,0E0,1.0250019E0,0E0,0E0],"parents":[2147483647,0,0,2,2],"right_children":[2,-1,4,-1,-1],"split_conditions":[4E1,-7.685893E-2,6.8E1,7.756304E-2,-1.8512508E-2],"split_indices":[7,0,7,0,0],"split_type":[0,0,0,0,0],"sum_hessian":[7.4769855E0,3.1558135E0,4.3211718E0,3.2666302E0,1.0545418E0],"tree_param":{"num_deleted":"0","num_feature":"39","num_nodes":"5","size_leaf_vector":"1"}},{"base_weights":[-6.042645E-2,1.8243915E-1,-2.697741E-1,3.606551E-2,-8.028056E-3,-7.935428E-3,-4.6795305E-2,-1.8888267E-2,1.6795846E-2],"categories":[],"categories_nodes":[],"categories_segments":[],"categories_sizes":[],"default_left":[0,0,0,0,0,0,0,0,0],"id":49,"left_children":[1,3,5,-1,-1,7,-1,-1,-1],"loss_changes":[4.7758684E-1,2.3950528E-1,2.5202146E-1,0E0,0E0,1.3167572E-1,0E0,0E0,0E0],"parents":[2147483647,0,0,1,1,2,2,5,5],"right_children":[2,4,6,-1,-1,8,-1,-1,-1],"split_conditions":[5.449291E1,6.44E0,5.7183464E1,3.606551E-2,-8.028056E-3,1E0,-4.6795305E-2,-1.8888267E-2,1.6795846E-2],"split_indices":[19,8,20,0,0,33,0,0,0],"split_type":[0,0,0,0,0,0,0,0,0],"sum_hessian":[7.4252815E0,3.4969647E0,3.9283168E0,1.8614645E0,1.6355001E0,2.140405E0,1.7879119E0,1.0186477E0,1.1217573E0],"tree_param":{"num_deleted":"0","num_feature":"39","num_nodes":"9","size_leaf_vector":"1"}},{"base_weights":[-3.2090373E-2,-7.556998E-2,4.9757266E-1,7.680886E-2,-1.8211877E-2],"categories":[],"categories_nodes":[],"categories_segments":[],"categories_sizes":[],"default_left":[0,0,0,0,0],"id":50,"left_children":[1,-1,3,-1,-1],"loss_changes":[3.6047354E0,0E0,1.1450659E0,0E0,0E0],"parents":[2147483647,0,0,2,2],"right_children":[2,-1,4,-1,-1],"split_conditions":[4E1,-7.556998E-2,7.1E1,7.680886E-2,-1.8211877E-2],"split_indices":[7,0,7,0,0],"split_type":[0,0,0,0,0],"sum_hessian":[7.424159E0,2.9572709E0,4.4668884E0,3.1021738E0,1.3647145E0],"tree_param":{"num_deleted":"0","num_feature":"39","num_nodes":"5","size_leaf_vector":"1"}},{"base_weights":[2.0275474E-2,-7.446297E-2,5.7504517E-1,-4.423804E-3,8.434879E-2],"categories":[],"categories_nodes":[],"categories_segments":[],"categories_sizes":[],"default_left":[0,0,0,0,0],"id":51,"left_children":[1,-1,3,-1,-1],"loss_changes":[3.8226259E0,0E0,9.018928E-1,0E0,0E0],"parents":[2147483647,0,0,2,2],"right_children":[2,-1,4,-1,-1],"split_conditions":[4E1,-7.446297E-2,4.839968E1,-4.423804E-3,8.434879E-2],"split_indices":[7,0,36,0,0],"split_type":[0,0,0,0,0],"sum_hessian":[6.9992E0,2.79848E0,4.20072E0,1.5228317E0,2.677888E0],"tree_param":{"num_deleted":"0","num_feature":"39","num_nodes":"5","size_leaf_vector":"1"}},{"base_weights":[-8.43662E-2,-7.2864264E-2,4.4080618E-1,7.2409876E-2,-2.665393E-2],"categories":[],"categories_nodes":[],"categories_segments":[],"categories_sizes":[],"default_left":[0,0,0,0,0],"id":52,"left_children":[1,-1,3,-1,-1],"loss_changes":[2.7434208E0,0E0,1.1081669E0,0E0,0E0],"parents":[2147483647,0,0,2,2],"right_children":[2,-1,4,-1,-1],"split_conditions":[4E1,-7.2864264E-2,6.6E1,7.2409876E-2,-2.665393E-2],"split_indices":[7,0,7,0,0],"split_type":[0,0,0,0,0],"sum_hessian":[6.1588182E0,2.5917945E0,3.5670238E0,2.5300512E0,1.0369726E0],"tree_param":{"num_deleted":"0","num_feature":"39","num_nodes":"5","size_leaf_vector":"1"}},{"base_weights":[-2.6651775E-2,-7.100384E-2,4.4519717E-1,-9.195491E-3,8.017893E-2],"categories":[],"categories_nodes":[],"categories_segments":[],"categories_sizes":[],"default_left":[0,0,0,0,0],"id":53,"left_children":[1,-1,3,-1,-1],"loss_changes":[2.6772218E0,0E0,1.0211401E0,0E0,0E0],"parents":[2147483647,0,0,2,2],"right_children":[2,-1,4,-1,-1],"split_conditions":[4E1,-7.100384E-2,2.4E1,-9.195491E-3,8.017893E-2],"split_indices":[7,0,21,0,0],"split_type":[0,0,0,0,0],"sum_hessian":[6.322302E0,2.3761234E0,3.9461787E0,1.8705727E0,2.075606E0],"tree_param":{"num_deleted":"0","num_feature":"39","num_nodes":"5","size_leaf_vector":"1"}},{"base_weights":[-6.725682E-5,-7.0235185E-2,5.076987E-1,-7.6301233E-3,7.951664E-2],"categories":[],"categories_nodes":[],"categories_segments":[],"categories_sizes":[],"default_left":[0,0,0,0,0],"id":54,"left_children":[1,-1,3,-1,-1],"loss_changes":[2.8000617E0,0E0,8.257568E-1,0E0,0E0],"parents":[2147483647,0,0,2,2],"right_children":[2,-1,4,-1,-1],"split_conditions":[4E1,-7.0235185E-2,4.839968E1,-7.6301233E-3,7.951664E-2],"split_indices":[7,0,36,0,0],"split_type":[0,0,0,0,0],"sum_hessian":[5.8522263E0,2.294925E0,3.557301E0,1.4157443E0,2.1415567E0],"tree_param":{"num_deleted":"0","num_feature":"39","num_nodes":"5","size_leaf_vector":"1"}},{"base_weights":[-1.49840955E-2,-6.816213E-2,4.1541353E-1,7.221067E-2,-2.1670355E-2],"categories":[],"categories_nodes":[],"categories_segments":[],"categories_sizes":[],"default_left":[0,0,0,0,0],"id":55,"left_children":[1,-1,3,-1,-1],"loss_changes":[2.2648902E0,0E0,1.0906242E0,0E0,0E0],"parents":[2147483647,0,0,2,2],"right_children":[2,-1,4,-1,-1],"split_conditions":[4E1,-6.816213E-2,7.1E1,7.221067E-2,-2.1670355E-2],"split_indices":[7,0,7,0,0],"split_type":[0,0,0,0,0],"sum_hessian":[5.90695E0,2.0884602E0,3.8184898E0,2.4751997E0,1.34329E0],"tree_param":{"num_deleted":"0","num_feature":"39","num_nodes":"5","size_leaf_vector":"1"}},{"base_weights":[3.5847843E-2,-6.468735E-2,4.620304E-1,-1.1464885E-2,7.751344E-2],"categories":[],"categories_nodes":[],"categories_segments":[],"categories_sizes":[],"default_left":[0,0,0,0,0],"id":56,"left_children":[1,-1,3,-1,-1],"loss_changes":[2.0994422E0,0E0,8.8212484E-1,0E0,0E0],"parents":[2147483647,0,0,2,2],"right_children":[2,-1,4,-1,-1],"split_conditions":[4E1,-6.468735E-2,1.9E1,-1.1464885E-2,7.751344E-2],"split_indices":[7,0,21,0,0],"split_type":[0,0,0,0,0],"sum_hessian":[5.188283E0,1.7949842E0,3.3932989E0,1.4170985E0,1.9762003E0],"tree_param":{"num_deleted":"0","num_feature":"39","num_nodes":"5","size_leaf_vector":"1"}},{"base_weights":[-2.2252563E-2,-6.451311E-2,3.6905694E-1,6.912703E-2,-2.2360576E-2],"categories":[],"categories_nodes":[],"categories_segments":[],"categories_sizes":[],"default_left":[0,0,0,0,0],"id":57,"left_children":[1,-1,3,-1,-1],"loss_changes":[1.7661084E0,0E0,1.0113049E0,0E0,0E0],"parents":[2147483647,0,0,2,2],"right_children":[2,-1,4,-1,-1],"split_conditions":[4E1,-6.451311E-2,7.1E1,6.912703E-2,-2.2360576E-2],"split_indices":[7,0,7,0,0],"split_type":[0,0,0,0,0],"sum_hessian":[5.269094E0,1.7827315E0,3.4863627E0,2.150706E0,1.3356565E0],"tree_param":{"num_deleted":"0","num_feature":"39","num_nodes":"5","size_leaf_vector":"1"}},{"base_weights":[6.7684755E-2,4.141898E-2,-1.9001764E-1,-3.1861134E-2,5.4510604E-3],"categories":[],"categories_nodes":[],"categories_segments":[],"categories_sizes":[],"default_left":[0,0,0,0,0],"id":58,"left_children":[1,-1,3,-1,-1],"loss_changes":[5.748601E-1,0E0,1.391223E-1,0E0,0E0],"parents":[2147483647,0,0,2,2],"right_children":[2,-1,4,-1,-1],"split_conditions":[1.2E0,4.141898E-2,1.9E0,-3.1861134E-2,5.4510604E-3],"split_indices":[9,0,38,0,0],"split_type":[0,0,0,0,0],"sum_hessian":[4.5563664E0,1.6843538E0,2.8720124E0,1.6836457E0,1.1883668E0],"tree_param":{"num_deleted":"0","num_feature":"39","num_nodes":"5","size_leaf_vector":"1"}},{"base_weights":[-2.9670432E-2,-6.306176E-2,3.4881753E-1,6.7476E-2,-2.2126537E-2],"categories":[],"categories_nodes":[],"categories_segments":[],"categories_sizes":[],"default_left":[0,0,0,0,0],"id":59,"left_children":[1,-1,3,-1,-1],"loss_changes":[1.5867481E0,0E0,9.54031E-1,0E0,0E0],"parents":[2147483647,0,0,2,2],"right_children":[2,-1,4,-1,-1],"split_conditions":[4E1,-6.306176E-2,7.1E1,6.7476E-2,-2.2126537E-2],"split_indices":[7,0,7,0,0],"split_type":[0,0,0,0,0],"sum_hessian":[5.0091014E0,1.6782683E0,3.330833E0,2.0023696E0,1.3284632E0],"tree_param":{"num_deleted":"0","num_feature":"39","num_nodes":"5","size_leaf_vector":"1"}},{"base_weights":[1.20190874E-1,-6.285461E-2,6.484943E-2],"categories":[],"categories_nodes":[],"categories_segments":[],"categories_sizes":[],"default_left":[0,0,0],"id":60,"left_children":[1,-1,-1],"loss_changes":[2.470507E0,0E0,0E0],"parents":[2147483647,0,0],"right_children":[2,-1,-1],"split_conditions":[4E1,-6.285461E-2,6.484943E-2],"split_indices":[7,0,0],"split_type":[0,0,0],"sum_hessian":[4.2151294E0,1.665276E0,2.5498536E0],"tree_param":{"num_deleted":"0","num_feature":"39","num_nodes":"3","size_leaf_vector":"1"}},{"base_weights":[-5.821734E-2,-6.048605E-2,2.919508E-1,-2.2139205E-2,7.088925E-2],"categories":[],"categories_nodes":[],"categories_segments":[],"categories_sizes":[],"default_left":[0,0,0,0,0],"id":61,"left_children":[1,-1,3,-1,-1],"loss_changes":[1.246877E0,0E0,1.0307666E0,0E0,0E0],"parents":[2147483647,0,0,2,2],"right_children":[2,-1,4,-1,-1],"split_conditions":[4E1,-6.048605E-2,2.4E1,-2.2139205E-2,7.088925E-2],"split_indices":[7,0,21,0,0],"split_type":[0,0,0,0,0],"sum_hessian":[4.591391E0,1.5087528E0,3.0826385E0,1.5918034E0,1.4908351E0],"tree_param":{"num_deleted":"0","num_feature":"39","num_nodes":"5","size_leaf_vector":"1"}},{"base_weights":[-1.7514436E-2,-5.953544E-2,4.1943067E-1,-9.048781E-4,6.1351385E-2],"categories":[],"categories_nodes":[],"categories_segments":[],"categories_sizes":[],"default_left":[0,0,0,0,0],"id":62,"left_children":[1,-1,3,-1,-1],"loss_changes":[1.4452454E0,0E0,2.7856284E-1,0E0,0E0],"parents":[2147483647,0,0,2,2],"right_children":[2,-1,4,-1,-1],"split_conditions":[4E1,-5.953544E-2,3.6E1,-9.048781E-4,6.1351385E-2],"split_indices":[7,0,22,0,0],"split_type":[0,0,0,0,0],"sum_hessian":[3.7350876E0,1.4521489E0,2.2829387E0,1.0089177E0,1.2740211E0],"tree_param":{"num_deleted":"0","num_feature":"39","num_nodes":"5","size_leaf_vector":"1"}},{"base_weights":[-7.444792E-2,-2.8839001E-2,9.568799E-2,-7.1759694E-3,2.140344E-2],"categories":[],"categories_nodes":[],"categories_segments":[],"categories_sizes":[],"default_left":[0,0,0,0,0],"id":63,"left_children":[1,-1,3,-1,-1],"loss_changes":[1.8427321E-1,0E0,7.775326E-2,0E0,0E0],"parents":[2147483647,0,0,2,2],"right_children":[2,-1,4,-1,-1],"split_conditions":[1.1E0,-2.8839001E-2,9E1,-7.1759694E-3,2.140344E-2],"split_indices":[38,0,3,0,0],"split_type":[0,0,0,0,0],"sum_hessian":[3.304425E0,1.1558778E0,2.1485472E0,1.0527143E0,1.0958328E0],"tree_param":{"num_deleted":"0","num_feature":"39","num_nodes":"5","size_leaf_vector":"1"}},{"base_weights":[8.3660156E-2,-5.754121E-2,5.0113565E-1,6.91924E-2,1.7825818E-3],"categories":[],"categories_nodes":[],"categories_segments":[],"categories_sizes":[],"default_left":[0,0,0,0,0],"id":64,"left_children":[1,-1,3,-1,-1],"loss_changes":[1.6177757E0,0E0,3.0970776E-1,0E0,0E0],"parents":[2147483647,0,0,2,2],"right_children":[2,-1,4,-1,-1],"split_conditions":[4E1,-5.754121E-2,1.05E2,6.91924E-2,1.7825818E-3],"split_indices":[7,0,17,0,0],"split_type":[0,0,0,0,0],"sum_hessian":[3.8316667E0,1.3391793E0,2.4924874E0,1.4775734E0,1.014914E0],"tree_param":{"num_deleted":"0","num_feature":"39","num_nodes":"5","size_leaf_vector":"1"}},{"base_weights":[-7.65705E-2,-5.606866E-2,2.2843647E-1,-2.4805522E-2,6.5779604E-2],"categories":[],"categories_nodes":[],"categories_segments":[],"categories_sizes":[],"default_left":[0,0,0,0,0],"id":65,"left_children":[1,-1,3,-1,-1],"loss_changes":[8.817273E-1,0E0,9.491358E-1,0E0,0E0],"parents":[2147483647,0,0,2,2],"right_children":[2,-1,4,-1,-1],"split_conditions":[4E1,-5.606866E-2,2.4E1,-2.4805522E-2,6.5779604E-2],"split_indices":[7,0,21,0,0],"split_type":[0,0,0,0,0],"sum_hessian":[4.1039705E0,1.2622366E0,2.841734E0,1.5470861E0,1.2946477E0],"tree_param":{"num_deleted":"0","num_feature":"39","num_nodes":"5","size_leaf_vector":"1"}},{"base_weights":[-1.4105427E-1,-5.534653E-2,1.9694184E-1,-2.622071E-2,5.3660702E-2],"categories":[],"categories_nodes":[],"categories_segments":[],"categories_sizes":[],"default_left":[0,0,0,0,0],"id":66,"left_children":[1,-1,3,-1,-1],"loss_changes":[7.170136E-1,0E0,6.2958866E-1,0E0,0E0],"parents":[2147483647,0,0,2,2],"right_children":[2,-1,4,-1,-1],"split_conditions":[4E1,-5.534653E-2,1.2E0,-2.622071E-2,5.3660702E-2],"split_indices":[7,0,38,0,0],"split_type":[0,0,0,0,0],"sum_hessian":[3.3618526E0,1.2270991E0,2.1347535E0,1.0046887E0,1.1300648E0],"tree_param":{"num_deleted":"0","num_feature":"39","num_nodes":"5","size_leaf_vector":"1"}},{"base_weights":[-7.8239195E-2,-5.3748082E-2,2.0726195E-1,5.98569E-2,-3.053608E-2],"categories":[],"categories_nodes":[],"categories_segments":[],"categories_sizes":[],"default_left":[0,0,0,0,0],"id":67,"left_children":[1,-1,3,-1,-1],"loss_changes":[7.520535E-1,0E0,9.319482E-1,0E0,0E0],"parents":[2147483647,0,0,2,2],"right_children":[2,-1,4,-1,-1],"split_conditions":[4E1,-5.3748082E-2,7.1E1,5.98569E-2,-3.053608E-2],"split_indices":[7,0,7,0,0],"split_type":[0,0,0,0,0],"sum_hessian":[3.8862371E0,1.1514653E0,2.734772E0,1.4558212E0,1.2789507E0],"tree_param":{"num_deleted":"0","num_feature":"39","num_nodes":"5","size_leaf_vector":"1"}},{"base_weights":[-5.926797E-2,-5.083958E-2,2.0472445E-1,5.8785435E-2,-2.8877495E-2],"categories":[],"categories_nodes":[],"categories_segments":[],"categories_sizes":[],"default_left":[0,0,0,0,0],"id":68,"left_children":[1,-1,3,-1,-1],"loss_changes":[6.608899E-1,0E0,8.637744E-1,0E0,0E0],"parents":[2147483647,0,0,2,2],"right_children":[2,-1,4,-1,-1],"split_conditions":[4E1,-5.083958E-2,7.1E1,5.8785435E-2,-2.8877495E-2],"split_indices":[7,0,7,0,0],"split_type":[0,0,0,0,0],"sum_hessian":[3.6961803E0,1.0255777E0,2.6706026E0,1.3957849E0,1.2748178E0],"tree_param":{"num_deleted":"0","num_feature":"39","num_nodes":"5","size_leaf_vector":"1"}},{"base_weights":[-8.8675365E-2,2.614814E-2,-3.9551474E-2],"categories":[],"categories_nodes":[],"categories_segments":[],"categories_sizes":[],"default_left":[0,0,0],"id":69,"left_children":[1,-1,-1],"loss_changes":[5.8343256E-1,0E0,0E0],"parents":[2147483647,0,0],"right_children":[2,-1,-1],"split_conditions":[2E0,2.614814E-2,-3.9551474E-2],"split_indices":[27,0,0],"split_type":[0,0,0],"sum_hessian":[3.4676507E0,1.6885483E0,1.7791024E0],"tree_param":{"num_deleted":"0","num_feature":"39","num_nodes":"3","size_leaf_vector":"1"}},{"base_weights":[-1.3444127E-1,-5.029852E-2,1.2463984E-1,5.772778E-2,-4.573147E-2],"categories":[],"categories_nodes":[],"categories_segments":[],"categories_sizes":[],"default_left":[0,0,0,0,0],"id":70,"left_children":[1,-1,3,-1,-1],"loss_changes":[4.803345E-1,0E0,1.1516646E0,0E0,0E0],"parents":[2147483647,0,0,2,2],"right_children":[2,-1,4,-1,-1],"split_conditions":[4E1,-5.029852E-2,7.1E1,5.772778E-2,-4.573147E-2],"split_indices":[7,0,7,0,0],"split_type":[0,0,0,0,0],"sum_hessian":[3.3740091E0,1.0041631E0,2.3698459E0,1.33755E0,1.0322958E0],"tree_param":{"num_deleted":"0","num_feature":"39","num_nodes":"5","size_leaf_vector":"1"}},{"base_weights":[-8.0210485E-2,-3.780868E-2,2.4948586E-2],"categories":[],"categories_nodes":[],"categories_segments":[],"categories_sizes":[],"default_left":[0,0,0],"id":71,"left_children":[1,-1,-1],"loss_changes":[5.257789E-1,0E0,0E0],"parents":[2147483647,0,0],"right_children":[2,-1,-1],"split_conditions":[2.5E1,-3.780868E-2,2.4948586E-2],"split_indices":[21,0,0],"split_type":[0,0,0],"sum_hessian":[3.3932102E0,1.7055215E0,1.6876888E0],"tree_param":{"num_deleted":"0","num_feature":"39","num_nodes":"3","size_leaf_vector":"1"}},{"base_weights":[1.17208414E-1,3.1548664E-2,-1.5644921E-2],"categories":[],"categories_nodes":[],"categories_segments":[],"categories_sizes":[],"default_left":[0,0,0],"id":72,"left_children":[1,-1,-1],"loss_changes":[2.4480839E-1,0E0,0E0],"parents":[2147483647,0,0],"right_children":[2,-1,-1],"split_conditions":[6.46E0,3.1548664E-2,-1.5644921E-2],"split_indices":[8,0,0],"split_type":[0,0,0],"sum_hessian":[2.6020918E0,1.4202211E0,1.1818708E0],"tree_param":{"num_deleted":"0","num_feature":"39","num_nodes":"3","size_leaf_vector":"1"}},{"base_weights":[3.831606E-3,3.0685617E-2,-2.5765663E-2],"categories":[],"categories_nodes":[],"categories_segments":[],"categories_sizes":[],"default_left":[0,0,0],"id":73,"left_children":[1,-1,-1],"loss_changes":[4.0985587E-1,0E0,0E0],"parents":[2147483647,0,0],"right_children":[2,-1,-1],"split_conditions":[8E1,3.0685617E-2,-2.5765663E-2],"split_indices":[35,0,0],"split_type":[0,0,0],"sum_hessian":[3.1747022E0,1.3901888E0,1.7845134E0],"tree_param":{"num_deleted":"0","num_feature":"39","num_nodes":"3","size_leaf_vector":"1"}},{"base_weights":[-1.7356683E-1,1.8544124E-2,-3.9382864E-2],"categories":[],"categories_nodes":[],"categories_segments":[],"categories_sizes":[],"default_left":[0,0,0],"id":74,"left_children":[1,-1,-1],"loss_changes":[3.9760613E-1,0E0,0E0],"parents":[2147483647,0,0],"right_children":[2,-1,-1],"split_conditions":[5.9758045E1,1.8544124E-2,-3.9382864E-2],"split_indices":[16,0,0],"split_type":[0,0,0],"sum_hessian":[3.1045957E0,1.2406037E0,1.863992E0],"tree_param":{"num_deleted":"0","num_feature":"39","num_nodes":"3","size_leaf_vector":"1"}},{"base_weights":[-5.7633024E-2,-4.330837E-2,1.9159357E-1,-2.5336368E-2,5.9989154E-2],"categories":[],"categories_nodes":[],"categories_segments":[],"categories_sizes":[],"default_left":[0,0,0,0,0],"id":75,"left_children":[1,-1,3,-1,-1],"loss_changes":[4.962945E-1,0E0,7.6025903E-1,0E0,0E0],"parents":[2147483647,0,0,2,2],"right_children":[2,-1,4,-1,-1],"split_conditions":[4.1E1,-4.330837E-2,2.4E1,-2.5336368E-2,5.9989154E-2],"split_indices":[7,0,21,0,0],"split_type":[0,0,0,0,0],"sum_hessian":[3.4171033E0,1.0689934E0,2.3481097E0,1.3051931E0,1.0429168E0],"tree_param":{"num_deleted":"0","num_feature":"39","num_nodes":"5","size_leaf_vector":"1"}},{"base_weights":[-4.8672713E-2,3.226308E-2,-2.65141E-1,-1.9976506E-3,-4.076997E-2],"categories":[],"categories_nodes":[],"categories_segments":[],"categories_sizes":[],"default_left":[0,0,0,0,0],"id":76,"left_children":[1,-1,3,-1,-1],"loss_changes":[4.2977345E-1,0E0,1.0559788E-1,0E0,0E0],"parents":[2147483647,0,0,2,2],"right_children":[2,-1,4,-1,-1],"split_conditions":[5.4867863E1,3.226308E-2,5.942079E1,-1.9976506E-3,-4.076997E-2],"split_indices":[15,0,20,0,0],"split_type":[0,0,0,0,0],"sum_hessian":[3.2827854E0,1.0283861E0,2.2543993E0,1.2481052E0,1.006294E0],"tree_param":{"num_deleted":"0","num_feature":"39","num_nodes":"5","size_leaf_vector":"1"}},{"base_weights":[-4.1775525E-2,-4.1487943E-2,2.0152327E-1,-2.1131732E-2,5.808723E-2],"categories":[],"categories_nodes":[],"categories_segments":[],"categories_sizes":[],"default_left":[0,0,0,0,0],"id":77,"left_children":[1,-1,3,-1,-1],"loss_changes":[4.8233345E-1,0E0,6.445386E-1,0E0,0E0],"parents":[2147483647,0,0,2,2],"right_children":[2,-1,4,-1,-1],"split_conditions":[4.1E1,-4.1487943E-2,2.4E1,-2.1131732E-2,5.808723E-2],"split_indices":[7,0,21,0,0],"split_type":[0,0,0,0,0],"sum_hessian":[3.3924253E0,1.060658E0,2.3317673E0,1.3287039E0,1.0030636E0],"tree_param":{"num_deleted":"0","num_feature":"39","num_nodes":"5","size_leaf_vector":"1"}},{"base_weights":[-2.8767135E-2,-3.482265E-2,2.1256382E-2],"categories":[],"categories_nodes":[],"categories_segments":[],"categories_sizes":[],"default_left":[0,0,0],"id":78,"left_children":[1,-1,-1],"loss_changes":[3.6538228E-1,0E0,0E0],"parents":[2147483647,0,0],"right_children":[2,-1,-1],"split_conditions":[4.2E1,-3.482265E-2,2.1256382E-2],"split_indices":[7,0,0],"split_type":[0,0,0],"sum_hessian":[2.7792373E0,1.0054033E0,1.7738339E0],"tree_param":{"num_deleted":"0","num_feature":"39","num_nodes":"3","size_leaf_vector":"1"}},{"base_weights":[1.0618741E-1,-3.4744658E-2,4.0002495E-2],"categories":[],"categories_nodes":[],"categories_segments":[],"categories_sizes":[],"default_left":[0,0,0],"id":79,"left_children":[1,-1,-1],"loss_changes":[6.413318E-1,0E0,0E0],"parents":[2147483647,0,0],"right_children":[2,-1,-1],"split_conditions":[4.2E1,-3.4744658E-2,4.0002495E-2],"split_indices":[7,0,0],"split_type":[0,0,0],"sum_hessian":[2.7686763E0,1.0166702E0,1.7520062E0],"tree_param":{"num_deleted":"0","num_feature":"39","num_nodes":"3","size_leaf_vector":"1"}},{"base_weights":[2.072898E-2,2.8778313E-2,-2.1578519E-2],"categories":[],"categories_nodes":[],"categories_segments":[],"categories_sizes":[],"default_left":[0,0,0],"id":80,"left_children":[1,-1,-1],"loss_changes":[3.1035963E-1,0E0,0E0],"parents":[2147483647,0,0],"right_children":[2,-1,-1],"split_conditions":[8E1,2.8778313E-2,-2.1578519E-2],"split_indices":[35,0,0],"split_type":[0,0,0],"sum_hessian":[2.930527E0,1.274588E0,1.655939E0],"tree_param":{"num_deleted":"0","num_feature":"39","num_nodes":"3","size_leaf_vector":"1"}},{"base_weights":[-1.7100511E-1,6.188252E-3,-3.7600596E-2],"categories":[],"categories_nodes":[],"categories_segments":[],"categories_sizes":[],"default_left":[0,0,0],"id":81,"left_children":[1,-1,-1],"loss_changes":[1.9250968E-1,0E0,0E0],"parents":[2147483647,0,0],"right_children":[2,-1,-1],"split_conditions":[2.7E0,6.188252E-3,-3.7600596E-2],"split_indices":[27,0,0],"split_type":[0,0,0],"sum_hessian":[2.5449061E0,1.5182546E0,1.0266515E0],"tree_param":{"num_deleted":"0","num_feature":"39","num_nodes":"3","size_leaf_vector":"1"}},{"base_weights":[1.7387792E-2,-2.63191E-2,2.534726E-2],"categories":[],"categories_nodes":[],"categories_segments":[],"categories_sizes":[],"default_left":[0,0,0],"id":82,"left_children":[1,-1,-1],"loss_changes":[3.2801446E-1,0E0,0E0],"parents":[2147483647,0,0],"right_children":[2,-1,-1],"split_conditions":[5.0583946E1,-2.63191E-2,2.534726E-2],"split_indices":[36,0,0],"split_type":[0,0,0],"sum_hessian":[2.9447649E0,1.2931201E0,1.6516447E0],"tree_param":{"num_deleted":"0","num_feature":"39","num_nodes":"3","size_leaf_vector":"1"}},{"base_weights":[-5.9891876E-2,-3.096026E-2,2.5851248E-2],"categories":[],"categories_nodes":[],"categories_segments":[],"categories_sizes":[],"default_left":[0,0,0],"id":83,"left_children":[1,-1,-1],"loss_changes":[4.1262046E-1,0E0,0E0],"parents":[2147483647,0,0],"right_children":[2,-1,-1],"split_conditions":[5.4745975E1,-3.096026E-2,2.5851248E-2],"split_indices":[36,0,0],"split_type":[0,0,0],"sum_hessian":[3.1829774E0,1.7994165E0,1.383561E0],"tree_param":{"num_deleted":"0","num_feature":"39","num_nodes":"3","size_leaf_vector":"1"}},{"base_weights":[-4.4366132E-2,-2.7985845E-2,2.3239827E-2],"categories":[],"categories_nodes":[],"categories_segments":[],"categories_sizes":[],"default_left":[0,0,0],"id":84,"left_children":[1,-1,-1],"loss_changes":[3.3487454E-1,0E0,0E0],"parents":[2147483647,0,0],"right_children":[2,-1,-1],"split_conditions":[5.3412582E1,-2.7985845E-2,2.3239827E-2],"split_indices":[36,0,0],"split_type":[0,0,0],"sum_hessian":[3.1401188E0,1.6905179E0,1.449601E0],"tree_param":{"num_deleted":"0","num_feature":"39","num_nodes":"3","size_leaf_vector":"1"}},{"base_weights":[-1.15155555E-1,2.0335648E-2,-3.203172E-2],"categories":[],"categories_nodes":[],"categories_segments":[],"categories_sizes":[],"default_left":[0,0,0],"id":85,"left_children":[1,-1,-1],"loss_changes":[3.1592566E-1,0E0,0E0],"parents":[2147483647,0,0],"right_children":[2,-1,-1],"split_conditions":[5.3907677E1,2.0335648E-2,-3.203172E-2],"split_indices":[19,0,0],"split_type":[0,0,0],"sum_hessian":[2.8378077E0,1.1152258E0,1.7225819E0],"tree_param":{"num_deleted":"0","num_feature":"39","num_nodes":"3","size_leaf_vector":"1"}},{"base_weights":[-1.0643101E-1,-3.489461E-2,9.750496E-3],"categories":[],"categories_nodes":[],"categories_segments":[],"categories_sizes":[],"default_left":[0,0,0],"id":86,"left_children":[1,-1,-1],"loss_changes":[2.2993988E-1,0E0,0E0],"parents":[2147483647,0,0],"right_children":[2,-1,-1],"split_conditions":[4.2E1,-3.489461E-2,9.750496E-3],"split_indices":[7,0,0],"split_type":[0,0,0],"sum_hessian":[2.9612944E0,1.0278938E0,1.9334006E0],"tree_param":{"num_deleted":"0","num_feature":"39","num_nodes":"3","size_leaf_vector":"1"}},{"base_weights":[-7.8481235E-2,1.9993601E-2,-3.1677213E-2],"categories":[],"categories_nodes":[],"categories_segments":[],"categories_sizes":[],"default_left":[0,0,0],"id":87,"left_children":[1,-1,-1],"loss_changes":[3.296119E-1,0E0,0E0],"parents":[2147483647,0,0],"right_children":[2,-1,-1],"split_conditions":[2E0,1.9993601E-2,-3.1677213E-2],"split_indices":[27,0,0],"split_type":[0,0,0],"sum_hessian":[3.0135748E0,1.464003E0,1.5495719E0],"tree_param":{"num_deleted":"0","num_feature":"39","num_nodes":"3","size_leaf_vector":"1"}},{"base_weights":[4.1450508E-2,-2.7448077E-2,2.498362E-2],"categories":[],"categories_nodes":[],"categories_segments":[],"categories_sizes":[],"default_left":[0,0,0],"id":88,"left_children":[1,-1,-1],"loss_changes":[3.2263967E-1,0E0,0E0],"parents":[2147483647,0,0],"right_children":[2,-1,-1],"split_conditions":[4.3E1,-2.7448077E-2,2.498362E-2],"split_indices":[7,0,0],"split_type":[0,0,0],"sum_hessian":[2.8590763E0,1.0102583E0,1.8488178E0],"tree_param":{"num_deleted":"0","num_feature":"39","num_nodes":"3","size_leaf_vector":"1"}},{"base_weights":[2.8119309E-2,-2.801822E-2,2.3867588E-2],"categories":[],"categories_nodes":[],"categories_segments":[],"categories_sizes":[],"default_left":[0,0,0],"id":89,"left_children":[1,-1,-1],"loss_changes":[3.181216E-1,0E0,0E0],"parents":[2147483647,0,0],"right_children":[2,-1,-1],"split_conditions":[4.3E1,-2.801822E-2,2.3867588E-2],"split_indices":[7,0,0],"split_type":[0,0,0],"sum_hessian":[2.8704348E0,1.0306543E0,1.8397804E0],"tree_param":{"num_deleted":"0","num_feature":"39","num_nodes":"3","size_leaf_vector":"1"}},{"base_weights":[2.8587371E-2,-1.7562693E-2,2.7043646E-2],"categories":[],"categories_nodes":[],"categories_segments":[],"categories_sizes":[],"default_left":[0,0,0],"id":90,"left_children":[1,-1,-1],"loss_changes":[2.3628007E-1,0E0,0E0],"parents":[2147483647,0,0],"right_children":[2,-1,-1],"split_conditions":[3.1103424E2,-1.7562693E-2,2.7043646E-2],"split_indices":[5,0,0],"split_type":[0,0,0],"sum_hessian":[2.8223898E0,1.6787179E0,1.1436719E0],"tree_param":{"num_deleted":"0","num_feature":"39","num_nodes":"3","size_leaf_vector":"1"}},{"base_weights":[-9.392054E-2,1.5206573E-2,-3.0770091E-2],"categories":[],"categories_nodes":[],"categories_segments":[],"categories_sizes":[],"default_left":[0,0,0],"id":91,"left_children":[1,-1,-1],"loss_changes":[2.4742976E-1,0E0,0E0],"parents":[2147483647,0,0],"right_children":[2,-1,-1],"split_conditions":[5.9627426E1,1.5206573E-2,-3.0770091E-2],"split_indices":[4,0,0],"split_type":[0,0,0],"sum_hessian":[2.8153703E0,1.4433094E0,1.3720609E0],"tree_param":{"num_deleted":"0","num_feature":"39","num_nodes":"3","size_leaf_vector":"1"}},{"base_weights":[-5.8380876E-2,-2.4747899E-2,1.8878369E-2],"categories":[],"categories_nodes":[],"categories_segments":[],"categories_sizes":[],"default_left":[0,0,0],"id":92,"left_children":[1,-1,-1],"loss_changes":[2.1806042E-1,0E0,0E0],"parents":[2147483647,0,0],"right_children":[2,-1,-1],"split_conditions":[4E0,-2.4747899E-2,1.8878369E-2],"split_indices":[11,0,0],"split_type":[0,0,0],"sum_hessian":[2.665949E0,1.5096724E0,1.1562768E0],"tree_param":{"num_deleted":"0","num_feature":"39","num_nodes":"3","size_leaf_vector":"1"}},{"base_weights":[-1.957874E-2,-2.4402767E-2,2.6047304E-2],"categories":[],"categories_nodes":[],"categories_segments":[],"categories_sizes":[],"default_left":[0,0,0],"id":93,"left_children":[1,-1,-1],"loss_changes":[3.118632E-1,0E0,0E0],"parents":[2147483647,0,0],"right_children":[2,-1,-1],"split_conditions":[5.4745975E1,-2.4402767E-2,2.6047304E-2],"split_indices":[36,0,0],"split_type":[0,0,0],"sum_hessian":[2.9502249E0,1.7090954E0,1.2411295E0],"tree_param":{"num_deleted":"0","num_feature":"39","num_nodes":"3","size_leaf_vector":"1"}},{"base_weights":[-6.1278142E-2,2.2472268E-2,-2.6920846E-2],"categories":[],"categories_nodes":[],"categories_segments":[],"categories_sizes":[],"default_left":[0,0,0],"id":94,"left_children":[1,-1,-1],"loss_changes":[2.9005128E-1,0E0,0E0],"parents":[2147483647,0,0],"right_children":[2,-1,-1],"split_conditions":[5.449291E1,2.2472268E-2,-2.6920846E-2],"split_indices":[19,0,0],"split_type":[0,0,0],"sum_hessian":[2.860112E0,1.1700245E0,1.6900873E0],"tree_param":{"num_deleted":"0","num_feature":"39","num_nodes":"3","size_leaf_vector":"1"}},{"base_weights":[-2.0994537E-2,1.8314496E-2,-1.8419966E-2],"categories":[],"categories_nodes":[],"categories_segments":[],"categories_sizes":[],"default_left":[0,0,0],"id":95,"left_children":[1,-1,-1],"loss_changes":[1.5518084E-1,0E0,0E0],"parents":[2147483647,0,0],"right_children":[2,-1,-1],"split_conditions":[8E1,1.8314496E-2,-1.8419966E-2],"split_indices":[35,0,0],"split_type":[0,0,0],"sum_hessian":[2.645197E0,1.120936E0,1.5242608E0],"tree_param":{"num_deleted":"0","num_feature":"39","num_nodes":"3","size_leaf_vector":"1"}},{"base_weights":[3.1593487E-2,-2.519965E-2,2.2486778E-2],"categories":[],"categories_nodes":[],"categories_segments":[],"categories_sizes":[],"default_left":[0,0,0],"id":96,"left_children":[1,-1,-1],"loss_changes":[2.6837435E-1,0E0,0E0],"parents":[2147483647,0,0],"right_children":[2,-1,-1],"split_conditions":[4.3E1,-2.519965E-2,2.2486778E-2],"split_indices":[7,0,0],"split_type":[0,0,0],"sum_hessian":[2.8625422E0,1.0370531E0,1.8254889E0],"tree_param":{"num_deleted":"0","num_feature":"39","num_nodes":"3","size_leaf_vector":"1"}},{"base_weights":[-6.044941E-2,2.0605078E-2,-2.5034264E-2],"categories":[],"categories_nodes":[],"categories_segments":[],"categories_sizes":[],"default_left":[0,0,0],"id":97,"left_children":[1,-1,-1],"loss_changes":[2.4564788E-1,0E0,0E0],"parents":[2147483647,0,0],"right_children":[2,-1,-1],"split_conditions":[5.449291E1,2.0605078E-2,-2.5034264E-2],"split_indices":[19,0,0],"split_type":[0,0,0],"sum_hessian":[2.8347695E0,1.1440699E0,1.6906995E0],"tree_param":{"num_deleted":"0","num_feature":"39","num_nodes":"3","size_leaf_vector":"1"}},{"base_weights":[8.000461E-2,-1.5475419E-2,2.4653286E-2],"categories":[],"categories_nodes":[],"categories_segments":[],"categories_sizes":[],"default_left":[0,0,0],"id":98,"left_children":[1,-1,-1],"loss_changes":[1.7808212E-1,0E0,0E0],"parents":[2147483647,0,0],"right_children":[2,-1,-1],"split_conditions":[3.5E1,-1.5475419E-2,2.4653286E-2],"split_indices":[24,0,0],"split_type":[0,0,0],"sum_hessian":[2.5793276E0,1.0997238E0,1.4796036E0],"tree_param":{"num_deleted":"0","num_feature":"39","num_nodes":"3","size_leaf_vector":"1"}},{"base_weights":[4.8380915E-2,-2.6660038E-2,2.6925206E-2],"categories":[],"categories_nodes":[],"categories_segments":[],"categories_sizes":[],"default_left":[0,0,0],"id":99,"left_children":[1,-1,-1],"loss_changes":[3.27117E-1,0E0,0E0],"parents":[2147483647,0,0],"right_children":[2,-1,-1],"split_conditions":[1.2E0,-2.6660038E-2,2.6925206E-2],"split_indices":[38,0,0],"split_type":[0,0,0],"sum_hessian":[2.6701636E0,1.0152662E0,1.6548973E0],"tree_param":{"num_deleted":"0","num_feature":"39","num_nodes":"3","size_leaf_vector":"1"}}]},"name":"gbtree"},"learner_model_param":{"base_score":"4.934555E-1","boost_from_average":"1","num_class":"0","num_feature":"39","num_target":"1"},"objective":{"name":"binary:logistic","reg_loss_param":{"scale_pos_weight":"1"}}},"version":[3,0,2]}